{"learner":{"attributes":{"scikit_learn":"{\"_estimator_type\": \"regressor\"}"},"feature_names":["age","sex","bmi","children","smoker","disease","policy_type"],"feature_types":["int","int","float","int","int","int","int"],"gradient_booster":{"model":{"cats":{"enc":[],"feature_segments":[],"sorted_idx":[]},"gbtree_model_param":{"num_parallel_tree":"1","num_trees":"300"},"iteration_indptr":[0,1,2,3,4,5,6,7,8,9,10,11,12,13,14,15,16,17,18,19,20,21,22,23,24,25,26,27,28,29,30,31,32,33,34,35,36,37,38,39,40,41,42,43,44,45,46,47,48,49,50,51,52,53,54,55,56,57,58,59,60,61,62,63,64,65,66,67,68,69,70,71,72,73,74,75,76,77,78,79,80,81,82,83,84,85,86,87,88,89,90,91,92,93,94,95,96,97,98,99,100,101,102,103,104,105,106,107,108,109,110,111,112,113,114,115,116,117,118,119,120,121,122,123,124,125,126,127,128,129,130,131,132,133,134,135,136,137,138,139,140,141,142,143,144,145,146,147,148,149,150,151,152,153,154,155,156,157,158,159,160,161,162,163,164,165,166,167,168,169,170,171,172,173,174,175,176,177,178,179,180,181,182,183,184,185,186,187,188,189,190,191,192,193,194,195,196,197,198,199,200,201,202,203,204,205,206,207,208,209,210,211,212,213,214,215,216,217,218,219,220,221,222,223,224,225,226,227,228,229,230,231,232,233,234,235,236,237,238,239,240,241,242,243,244,245,246,247,248,249,250,251,252,253,254,255,256,257,258,259,260,261,262,263,264,265,266,267,268,269,270,271,272,273,274,275,276,277,278,279,280,281,282,283,284,285,286,287,288,289,290,291,292,293,294,295,296,297,298,299,300],"tree_info":[0,0,0,0,0,0,0,0,0,0,0,0,0,0,0,0,0,0,0,0,0,0,0,0,0,0,0,0,0,0,0,0,0,0,0,0,0,0,0,0,0,0,0,0,0,0,0,0,0,0,0,0,0,0,0,0,0,0,0,0,0,0,0,0,0,0,0,0,0,0,0,0,0,0,0,0,0,0,0,0,0,0,0,0,0,0,0,0,0,0,0,0,0,0,0,0,0,0,0,0,0,0,0,0,0,0,0,0,0,0,0,0,0,0,0,0,0,0,0,0,0,0,0,0,0,0,0,0,0,0,0,0,0,0,0,0,0,0,0,0,0,0,0,0,0,0,0,0,0,0,0,0,0,0,0,0,0,0,0,0,0,0,0,0,0,0,0,0,0,0,0,0,0,0,0,0,0,0,0,0,0,0,0,0,0,0,0,0,0,0,0,0,0,0,0,0,0,0,0,0,0,0,0,0,0,0,0,0,0,0,0,0,0,0,0,0,0,0,0,0,0,0,0,0,0,0,0,0,0,0,0,0,0,0,0,0,0,0,0,0,0,0,0,0,0,0,0,0,0,0,0,0,0,0,0,0,0,0,0,0,0,0,0,0,0,0,0,0,0,0,0,0,0,0,0,0,0,0,0,0,0,0,0,0,0,0,0,0,0,0,0,0,0,0,0,0,0,0,0,0],"trees":[{"base_weights":[1.07377014E2,6.831156E3,-7.8567715E3,4.684023E3,2.2407008E4,-1.0956218E4,9.956204E2,2.4301064E3,1.7876398E4,2.9370162E4,1.8916502E4,-1.3209609E4,1.1116515E3,-1.1670055E3,1.4226147E4,1.1351999E4,-2.3628606E3,1.5089682E4,2.6436195E4,1.3126171E3,1.8340012E3,1.557293E4,1.5916383E3,-3.328838E3,-1.8577926E4,-1.2640287E3,5.4247173E3,8.519313E3,-6.764046E3,6.007886E2,8.821979E2,9.118345E3,2.0848668E4,-5.17255E3,6.933413E3,1.1259434E4,1.764511E4,1.0694708E3,1.4663187E3,1.2101066E4,2.3986814E4,-5.4393706E3,-4.3873083E2,-2.137856E4,-1.581126E4,-2.3301003E3,1.101272E3,2.299518E3,6.4057007E3,5.5940728E3,1.1531796E4,-9.259001E3,-4.1329614E3,2.4871785E2,5.721829E2,9.3297186E2,1.1680074E3,-4.5258096E2,-1.6300792E2,1.7583804E2,5.160131E2,4.268474E2,6.7701996E2,9.7512384E2,6.9327905E2,4.4826392E2,7.1271814E2,3.4401367E2,1.2127964E3,-3.7028326E2,-2.175814E2,-6.315304E1,3.8677685E1,-1.145285E3,-9.9822754E2,-8.7870795E2,-7.284274E2,-1.848151E2,-7.131787E1,7.770706E1,1.7193382E1,7.687486E1,1.4876875E2,2.7442963E2,3.6808038E2,1.0783219E2,3.173818E2,4.5067813E2,6.498005E2,-5.2130865E2,-4.22148E2,-2.9131967E2,-1.6233263E2],"categories":[],"categories_nodes":[],"categories_segments":[],"categories_sizes":[],"default_left":[0,0,0,0,0,0,0,0,0,0,0,0,0,0,0,0,0,0,0,0,0,0,0,0,0,0,0,0,0,0,0,0,0,0,0,0,0,0,0,0,0,0,0,0,0,0,0,0,0,0,0,0,0,0,0,0,0,0,0,0,0,0,0,0,0,0,0,0,0,0,0,0,0,0,0,0,0,0,0,0,0,0,0,0,0,0,0,0,0,0,0,0,0],"id":0,"left_children":[1,3,5,7,9,11,13,15,17,19,21,23,25,27,29,31,33,35,37,-1,-1,39,-1,41,43,45,47,49,51,-1,-1,53,55,57,59,61,63,-1,-1,65,67,69,71,73,75,77,79,81,83,85,87,89,91,-1,-1,-1,-1,-1,-1,-1,-1,-1,-1,-1,-1,-1,-1,-1,-1,-1,-1,-1,-1,-1,-1,-1,-1,-1,-1,-1,-1,-1,-1,-1,-1,-1,-1,-1,-1,-1,-1,-1,-1],"loss_changes":[2.048257E11,6.92567E10,4.8053993E10,5.419231E10,5.54496E9,3.528481E10,1.3035373E10,6.669331E10,5.9461796E9,9.059123E8,6.8459684E9,5.791426E10,2.1073825E9,2.1309794E10,2.714921E8,1.1370578E10,2.65473E10,1.7882808E9,3.0623744E8,0E0,0E0,3.7117583E9,0E0,2.3520842E9,5.147869E9,3.3793622E8,2.0907085E8,1.2044524E9,1.5962767E9,0E0,0E0,4.2118513E9,1.3042893E8,5.756762E9,2.6946243E9,4.0603648E8,5.719777E8,0E0,0E0,5.406812E8,1.2650496E7,4.4473037E8,1.648659E8,2.963374E8,5.3264384E8,1.0831968E8,1.3871796E7,5.210688E6,7.812096E6,1.8058445E8,1.4096691E8,3.2934912E7,1.6569485E8,0E0,0E0,0E0,0E0,0E0,0E0,0E0,0E0,0E0,0E0,0E0,0E0,0E0,0E0,0E0,0E0,0E0,0E0,0E0,0E0,0E0,0E0,0E0,0E0,0E0,0E0,0E0,0E0,0E0,0E0,0E0,0E0,0E0,0E0,0E0,0E0,0E0,0E0,0E0,0E0],"parents":[2147483647,0,0,1,1,2,2,3,3,4,4,5,5,6,6,7,7,8,8,9,9,10,10,11,11,12,12,13,13,14,14,15,15,16,16,17,17,18,18,21,21,23,23,24,24,25,25,26,26,27,27,28,28,31,31,32,32,33,33,34,34,35,35,36,36,39,39,40,40,41,41,42,42,43,43,44,44,45,45,46,46,47,47,48,48,49,49,50,50,51,51,52,52],"right_children":[2,4,6,8,10,12,14,16,18,20,22,24,26,28,30,32,34,36,38,-1,-1,40,-1,42,44,46,48,50,52,-1,-1,54,56,58,60,62,64,-1,-1,66,68,70,72,74,76,78,80,82,84,86,88,90,92,-1,-1,-1,-1,-1,-1,-1,-1,-1,-1,-1,-1,-1,-1,-1,-1,-1,-1,-1,-1,-1,-1,-1,-1,-1,-1,-1,-1,-1,-1,-1,-1,-1,-1,-1,-1,-1,-1,-1,-1],"split_conditions":[5E0,4E0,1E0,2E0,1E0,2E0,2E0,1E0,1E0,1E0,2E0,1E0,4.9E1,1E0,5.1E1,1E0,1E0,4.1E1,4.2E1,1.3126171E3,1.8340012E3,1E0,1.5916383E3,4.7E1,4.3E1,3.9E1,5.3E1,4.5E1,4.5E1,6.007886E2,8.821979E2,3.8E1,4.8E1,3.7E1,4.6E1,2E0,3E0,1.0694708E3,1.4663187E3,4.3E1,2E1,2.9E1,6.1E1,2.9E1,5.2E1,2.6E1,4.5E1,1E0,6.3E1,2.4E1,5.4E1,2.7E1,5.2E1,2.4871785E2,5.721829E2,9.3297186E2,1.1680074E3,-4.5258096E2,-1.6300792E2,1.7583804E2,5.160131E2,4.268474E2,6.7701996E2,9.7512384E2,6.9327905E2,4.4826392E2,7.1271814E2,3.4401367E2,1.2127964E3,-3.7028326E2,-2.175814E2,-6.315304E1,3.8677685E1,-1.145285E3,-9.9822754E2,-8.7870795E2,-7.284274E2,-1.848151E2,-7.131787E1,7.770706E1,1.7193382E1,7.687486E1,1.4876875E2,2.7442963E2,3.6808038E2,1.0783219E2,3.173818E2,4.5067813E2,6.498005E2,-5.2130865E2,-4.22148E2,-2.9131967E2,-1.6233263E2],"split_indices":[5,5,4,6,6,6,6,6,4,4,6,6,0,6,0,4,4,0,0,0,0,4,0,0,0,0,0,0,0,0,0,0,0,0,0,5,5,0,0,0,0,0,0,0,0,0,0,1,0,0,0,0,0,0,0,0,0,0,0,0,0,0,0,0,0,0,0,0,0,0,0,0,0,0,0,0,0,0,0,0,0,0,0,0,0,0,0,0,0,0,0,0,0],"split_type":[0,0,0,0,0,0,0,0,0,0,0,0,0,0,0,0,0,0,0,0,0,0,0,0,0,0,0,0,0,0,0,0,0,0,0,0,0,0,0,0,0,0,0,0,0,0,0,0,0,0,0,0,0,0,0,0,0,0,0,0,0,0,0,0,0,0,0,0,0,0,0,0,0,0,0,0,0,0,0,0,0,0,0,0,0,0,0,0,0,0,0,0,0],"sum_hessian":[3.823E3,2.073E3,1.75E3,1.823E3,2.5E2,1.296E3,4.54E2,1.558E3,2.65E2,8.1E1,1.69E2,1.092E3,2.04E2,3.91E2,6.3E1,5.44E2,1.014E3,2.02E2,6.3E1,6E1,2.1E1,1.36E2,3.3E1,3.85E2,7.07E2,1.32E2,7.2E1,1.43E2,2.48E2,4.1E1,2.2E1,4.42E2,1.02E2,7.79E2,2.35E2,8.3E1,1.19E2,2.6E1,3.7E1,9.8E1,3.8E1,2.22E2,1.63E2,3.48E2,3.59E2,9.1E1,4.1E1,1.8E1,5.4E1,7.4E1,6.9E1,1.26E2,1.22E2,1.6E2,2.82E2,5.9E1,4.3E1,2.56E2,5.23E2,1.18E2,1.17E2,4E1,4.3E1,7.7E1,4.2E1,4.2E1,5.6E1,1E0,3.7E1,7.7E1,1.45E2,9.7E1,6.6E1,1.6E2,1.88E2,1.43E2,2.16E2,3.5E1,5.6E1,2.5E1,1.6E1,1E1,8E0,3.1E1,2.3E1,1.4E1,6E1,2.8E1,4.1E1,4.7E1,7.9E1,4E1,8.2E1],"tree_param":{"num_deleted":"0","num_feature":"7","num_nodes":"93","size_leaf_vector":"1"}},{"base_weights":[-1.5616931E2,6.311535E3,-7.5915674E3,4.3330645E3,2.1239928E4,-1.032006E4,1.02064246E3,1.8068369E3,1.2941338E4,1.9125781E4,1.3808866E3,-1.4143776E4,-7.823871E3,-2.5347847E3,3.9639426E3,-2.6750415E3,4.826701E3,9.93907E3,1.6578338E4,1.1563128E4,2.0542338E4,-1.5939538E4,-1.231522E4,-9.183659E3,-4.913543E3,3.237673E2,-2.7102073E3,2.7145652E3,6.380891E3,-5.000194E3,-5.914034E2,6.4942627E3,1.3883809E3,4.2199873E3,1.1457587E4,1.3069498E4,1.7437889E4,1.4171056E2,1.2397147E4,5.884974E2,1.0473978E3,-1.4512822E2,-1.5978072E4,-3.254424E3,-1.2511045E4,-1.0132819E4,-7.985152E3,-5.797395E3,7.9612305E2,-5.0663604E3,-2.0525088E3,-2.6380996E3,3.0602256E3,6.9518164E3,3.4814878E3,-3.186001E2,-1.815997E2,5.601161E2,-2.6864304E2,1.4506021E2,8.2384796E2,-1.7401686E1,2.6837497E2,1.3133565E2,4.7426178E2,7.4043E2,3.0379504E2,3.15069E1,6.853809E2,9.682978E2,6.88102E2,6.9538086E2,4.6121103E2,-8.549139E2,-7.481631E2,2.3994434E1,-1.9783955E2,-6.452356E2,-4.042939E2,9.742793E1,-5.0894092E2,-7.117798E1,-4.0841553E2,-3.5341037E2,-2.471001E2,-9.2452736E1,7.491874E1,-2.1101859E2,-3.1982272E2,-1.25253235E2,-3.113571E0,-2.1425697E1,-2.922675E2,9.9964676E1,1.9865553E2,2.7337784E2,6.8705664E2,2.1466756E2,9.70154E1],"categories":[],"categories_nodes":[],"categories_segments":[],"categories_sizes":[],"default_left":[0,0,0,0,0,0,0,0,0,0,0,0,0,0,0,0,0,0,0,0,0,0,0,0,0,0,0,0,0,0,0,0,0,0,0,0,0,0,0,0,0,0,0,0,0,0,0,0,0,0,0,0,0,0,0,0,0,0,0,0,0,0,0,0,0,0,0,0,0,0,0,0,0,0,0,0,0,0,0,0,0,0,0,0,0,0,0,0,0,0,0,0,0,0,0,0,0,0,0],"id":1,"left_children":[1,3,5,7,9,11,13,15,17,19,-1,21,23,25,27,29,31,33,35,37,39,41,43,45,47,-1,49,51,53,55,57,59,61,63,65,67,69,-1,71,-1,-1,-1,73,75,77,79,81,83,85,87,89,91,93,95,97,-1,-1,-1,-1,-1,-1,-1,-1,-1,-1,-1,-1,-1,-1,-1,-1,-1,-1,-1,-1,-1,-1,-1,-1,-1,-1,-1,-1,-1,-1,-1,-1,-1,-1,-1,-1,-1,-1,-1,-1,-1,-1,-1,-1],"loss_changes":[1.8307829E11,6.004201E10,4.1626108E10,3.9098495E10,2.6808975E9,1.2726977E10,4.4784696E9,1.8853163E10,4.2902774E9,1.7122222E9,0E0,1.5440445E9,3.184132E9,3.2418227E8,6.892836E8,2.7149624E9,4.76135E9,1.9143475E9,3.2403046E8,1.9054669E8,2.942976E8,8.624128E7,4.3302912E8,5.5044096E8,1.3267988E9,0E0,2.855822E8,2.9670515E8,1.0656973E8,4.7423744E8,1.6808371E10,2.0038509E10,1.888134E9,3.8614534E8,3.1200973E9,3.0887475E8,7.540531E8,0E0,5.906432E6,0E0,0E0,0E0,4.313907E7,2.0258824E7,3.503268E8,1.8989056E8,2.8882534E8,2.1182771E8,6.964347E7,1.9139584E7,1.3584877E8,6.836213E7,1.344274E8,5.798817E8,1.0437984E7,0E0,0E0,0E0,0E0,0E0,0E0,0E0,0E0,0E0,0E0,0E0,0E0,0E0,0E0,0E0,0E0,0E0,0E0,0E0,0E0,0E0,0E0,0E0,0E0,0E0,0E0,0E0,0E0,0E0,0E0,0E0,0E0,0E0,0E0,0E0,0E0,0E0,0E0,0E0,0E0,0E0,0E0,0E0,0E0],"parents":[2147483647,0,0,1,1,2,2,3,3,4,4,5,5,6,6,7,7,8,8,9,9,11,11,12,12,13,13,14,14,15,15,16,16,17,17,18,18,19,19,20,20,21,21,22,22,23,23,24,24,26,26,27,27,28,28,29,29,30,30,31,31,32,32,33,33,34,34,35,35,36,36,38,38,42,42,43,43,44,44,45,45,46,46,47,47,48,48,49,49,50,50,51,51,52,52,53,53,54,54],"right_children":[2,4,6,8,10,12,14,16,18,20,-1,22,24,26,28,30,32,34,36,38,40,42,44,46,48,-1,50,52,54,56,58,60,62,64,66,68,70,-1,72,-1,-1,-1,74,76,78,80,82,84,86,88,90,92,94,96,98,-1,-1,-1,-1,-1,-1,-1,-1,-1,-1,-1,-1,-1,-1,-1,-1,-1,-1,-1,-1,-1,-1,-1,-1,-1,-1,-1,-1,-1,-1,-1,-1,-1,-1,-1,-1,-1,-1,-1,-1,-1,-1,-1,-1],"split_conditions":[5E0,4E0,1E0,1E0,1E0,2E0,2E0,2E0,3E0,1E0,1.3808866E3,1E0,4E0,1.55E1,4E0,2E0,3E0,1E0,1E0,1.97E1,1.74E1,1.42E1,1.59E1,3E0,2.81E1,3.237673E2,2.07E1,1.79E1,2.79E1,1E0,3E0,2E0,4E0,2.8E1,3E0,1.75E1,3E0,1.4171056E2,1E0,5.884974E2,1.0473978E3,-1.4512822E2,2.34E1,1.22E1,2.94E1,1.05E1,1.65E1,2.24E1,2.88E1,1.92E1,2.78E1,1.76E1,1E0,2.51E1,1E0,-3.186001E2,-1.815997E2,5.601161E2,-2.6864304E2,1.4506021E2,8.2384796E2,-1.7401686E1,2.6837497E2,1.3133565E2,4.7426178E2,7.4043E2,3.0379504E2,3.15069E1,6.853809E2,9.682978E2,6.88102E2,6.9538086E2,4.6121103E2,-8.549139E2,-7.481631E2,2.3994434E1,-1.9783955E2,-6.452356E2,-4.042939E2,9.742793E1,-5.0894092E2,-7.117798E1,-4.0841553E2,-3.5341037E2,-2.471001E2,-9.2452736E1,7.491874E1,-2.1101859E2,-3.1982272E2,-1.25253235E2,-3.113571E0,-2.1425697E1,-2.922675E2,9.9964676E1,1.9865553E2,2.7337784E2,6.8705664E2,2.1466756E2,9.70154E1],"split_indices":[5,5,4,4,4,3,3,3,3,3,0,3,3,2,3,5,5,5,5,2,2,2,2,3,2,0,2,2,2,3,5,5,3,2,5,2,5,0,1,0,0,0,2,2,2,2,2,2,2,2,2,2,1,2,1,0,0,0,0,0,0,0,0,0,0,0,0,0,0,0,0,0,0,0,0,0,0,0,0,0,0,0,0,0,0,0,0,0,0,0,0,0,0,0,0,0,0,0,0],"split_type":[0,0,0,0,0,0,0,0,0,0,0,0,0,0,0,0,0,0,0,0,0,0,0,0,0,0,0,0,0,0,0,0,0,0,0,0,0,0,0,0,0,0,0,0,0,0,0,0,0,0,0,0,0,0,0,0,0,0,0,0,0,0,0,0,0,0,0,0,0,0,0,0,0,0,0,0,0,0,0,0,0,0,0,0,0,0,0,0,0,0,0,0,0,0,0,0,0,0,0],"sum_hessian":[3.805E3,2.035E3,1.77E3,1.798E3,2.37E2,1.344E3,4.26E2,1.391E3,4.07E2,1.81E2,5.6E1,5.29E2,8.15E2,1.93E2,2.33E2,5.6E2,8.31E2,2.25E2,1.82E2,3E1,1.51E2,2.63E2,2.66E2,5.54E2,2.61E2,3E0,1.9E2,1.55E2,7.8E1,2.64E2,2.96E2,5.59E2,2.72E2,4.8E1,1.77E2,3.9E1,1.43E2,3E0,2.7E1,8E0,1.43E2,1E0,2.62E2,6E0,2.6E2,3.05E2,2.49E2,2.26E2,3.5E1,4E1,1.5E2,9E0,1.46E2,6.4E1,1.4E1,1.3E2,1.34E2,8.5E1,2.11E2,4.12E2,1.47E2,1.9E2,8.2E1,3.8E1,1E1,1.08E2,6.9E1,2E0,3.7E1,9.1E1,5.2E1,1.6E1,1.1E1,1.17E2,1.45E2,1E0,5E0,2.37E2,2.3E1,1E0,3.04E2,7E0,2.42E2,8.8E1,1.38E2,7E0,2.8E1,2.7E1,1.3E1,1.22E2,2.8E1,6E0,3E0,6.9E1,7.7E1,5.4E1,1E1,8E0,6E0],"tree_param":{"num_deleted":"0","num_feature":"7","num_nodes":"99","size_leaf_vector":"1"}},{"base_weights":[-1.2104374E2,5.9746284E3,-7.193189E3,4.0341274E3,2.0167838E4,-9.315705E3,4.300382E3,1.9544213E3,1.6536938E4,1.3201676E3,1.7041383E4,2.4361572E2,-1.4543557E4,1.1528716E-1,7.1160317E3,1.1039548E4,-2.722347E3,1.0659688E4,1.8105736E4,1.3745873E4,1.5053236E3,-1.955866E3,4.117088E3,-1.7063006E4,-1.0681016E4,-5.3344946E3,2.228495E3,5.1493086E3,1.0312169E4,6.7746475E3,1.3624563E4,-6.5321265E3,7.981639E0,5.533026E3,1.4780985E4,2.0025625E4,1.4171869E4,1.0192017E4,1.5961924E4,-4.8521035E3,1.9673758E2,1.9334186E3,7.8420776E3,-1.9462984E4,-1.4162424E4,-1.2287258E4,-8.611115E3,-3.2312668E2,-3.892662E3,1.7731413E2,4.5520703E3,3.1102344E3,6.289811E3,5.8295977E3,6.287633E2,4.4630573E2,1.7586516E2,5.807688E2,8.9001044E2,-5.0103268E2,-1.9901523E2,-1.4238597E2,1.2539037E2,3.3594824E2,1.2072986E2,5.0925592E2,8.3997284E2,8.2496234E2,1.3811031E3,5.262914E2,8.6614844E2,2.5339456E2,5.542196E2,6.0990375E2,8.949399E2,-2.9279416E2,-1.5761206E2,-3.1432938E1,9.746099E1,1.9198685E1,1.7014928E2,2.6688702E2,4.674338E2,-1.0568125E3,-9.1919183E2,-8.2932275E2,-6.435864E2,-6.6605695E2,-5.569803E2,-4.6265796E2,-3.4053073E2,-2.2420178E2,-1.030569E2,-5.4937183E1,2.2797857E1,2.7642136E2,1.162151E2,8.4990906E1,2.2178299E2,2.2794029E2,3.545523E2,1.27353355E2,3.299954E2],"categories":[],"categories_nodes":[],"categories_segments":[],"categories_sizes":[],"default_left":[0,0,0,0,0,0,0,0,0,0,0,0,0,0,0,0,0,0,0,0,0,0,0,0,0,0,0,0,0,0,0,0,0,0,0,0,0,0,0,0,0,0,0,0,0,0,0,0,0,0,0,0,0,0,0,0,0,0,0,0,0,0,0,0,0,0,0,0,0,0,0,0,0,0,0,0,0,0,0,0,0,0,0,0,0,0,0,0,0,0,0,0,0,0,0,0,0,0,0,0,0,0,0],"id":2,"left_children":[1,3,5,7,9,11,13,15,17,-1,19,21,23,25,27,29,31,33,35,37,-1,39,41,43,45,47,49,51,53,55,57,59,61,63,65,67,69,71,73,75,77,79,81,83,85,87,89,-1,91,93,95,97,99,101,-1,-1,-1,-1,-1,-1,-1,-1,-1,-1,-1,-1,-1,-1,-1,-1,-1,-1,-1,-1,-1,-1,-1,-1,-1,-1,-1,-1,-1,-1,-1,-1,-1,-1,-1,-1,-1,-1,-1,-1,-1,-1,-1,-1,-1,-1,-1,-1,-1],"loss_changes":[1.656696E11,5.676521E10,4.3439284E10,4.721363E10,4.384817E9,7.506555E10,3.366036E9,6.6270454E10,2.19503E9,0E0,6.819594E9,4.5404964E9,9.267003E9,1.3314044E9,1.00293325E9,5.7508577E9,1.0714061E10,1.1225405E9,1.2493742E9,9.083863E8,0E0,2.1206679E9,1.5547284E9,3.803693E9,1.177555E9,2.851616E7,3.757127E8,2.2694733E8,5.657943E8,1.384234E9,2.5534423E9,3.7880177E9,4.297533E9,8.36295E7,1.1647078E8,3.1338373E9,6.2189466E8,1.9532083E8,3.7945754E8,2.2895258E8,2.8473792E8,2.7876598E8,2.17984E8,1.8563891E8,6.281175E8,1.0671309E8,1.358121E8,0E0,9.170752E6,1.5790257E7,6.76288E7,6.723626E7,6.059827E7,4.134669E7,0E0,0E0,0E0,0E0,0E0,0E0,0E0,0E0,0E0,0E0,0E0,0E0,0E0,0E0,0E0,0E0,0E0,0E0,0E0,0E0,0E0,0E0,0E0,0E0,0E0,0E0,0E0,0E0,0E0,0E0,0E0,0E0,0E0,0E0,0E0,0E0,0E0,0E0,0E0,0E0,0E0,0E0,0E0,0E0,0E0,0E0,0E0,0E0,0E0],"parents":[2147483647,0,0,1,1,2,2,3,3,4,4,5,5,6,6,7,7,8,8,10,10,11,11,12,12,13,13,14,14,15,15,16,16,17,17,18,18,19,19,21,21,22,22,23,23,24,24,25,25,26,26,27,27,28,28,29,29,30,30,31,31,32,32,33,33,34,34,35,35,36,36,37,37,38,38,39,39,40,40,41,41,42,42,43,43,44,44,45,45,46,46,48,48,49,49,50,50,51,51,52,52,53,53],"right_children":[2,4,6,8,10,12,14,16,18,-1,20,22,24,26,28,30,32,34,36,38,-1,40,42,44,46,48,50,52,54,56,58,60,62,64,66,68,70,72,74,76,78,80,82,84,86,88,90,-1,92,94,96,98,100,102,-1,-1,-1,-1,-1,-1,-1,-1,-1,-1,-1,-1,-1,-1,-1,-1,-1,-1,-1,-1,-1,-1,-1,-1,-1,-1,-1,-1,-1,-1,-1,-1,-1,-1,-1,-1,-1,-1,-1,-1,-1,-1,-1,-1,-1,-1,-1,-1,-1],"split_conditions":[5E0,4E0,2E0,2E0,1E0,1E0,2E0,1E0,2.9E1,1.3201676E3,2E0,3E0,3E0,3.1E1,5.2E1,2E0,2E0,2E0,3E0,4.4E1,1.5053236E3,4E1,5.3E1,4.5E1,4.6E1,1E0,4.9E1,2.9E1,3E0,3E0,5.4E1,4E1,2E0,3E0,3E0,2E0,3E0,1E0,2E0,2E0,6E1,3.7E1,4E0,1E0,1E0,4E0,6.4E1,-3.2312668E2,2.5E1,3.4E1,6.1E1,1E0,3E0,5.5E1,6.287633E2,4.4630573E2,1.7586516E2,5.807688E2,8.9001044E2,-5.0103268E2,-1.9901523E2,-1.4238597E2,1.2539037E2,3.3594824E2,1.2072986E2,5.0925592E2,8.3997284E2,8.2496234E2,1.3811031E3,5.262914E2,8.6614844E2,2.5339456E2,5.542196E2,6.0990375E2,8.949399E2,-2.9279416E2,-1.5761206E2,-3.1432938E1,9.746099E1,1.9198685E1,1.7014928E2,2.6688702E2,4.674338E2,-1.0568125E3,-9.1919183E2,-8.2932275E2,-6.435864E2,-6.6605695E2,-5.569803E2,-4.6265796E2,-3.4053073E2,-2.2420178E2,-1.030569E2,-5.4937183E1,2.2797857E1,2.7642136E2,1.162151E2,8.4990906E1,2.2178299E2,2.2794029E2,3.545523E2,1.27353355E2,3.299954E2],"split_indices":[5,5,6,6,6,6,3,6,0,0,6,3,3,0,0,3,3,3,5,0,0,0,0,0,0,3,0,0,3,5,0,0,5,5,3,5,3,3,3,3,0,0,3,3,3,3,0,0,0,0,0,1,3,0,0,0,0,0,0,0,0,0,0,0,0,0,0,0,0,0,0,0,0,0,0,0,0,0,0,0,0,0,0,0,0,0,0,0,0,0,0,0,0,0,0,0,0,0,0,0,0,0,0],"split_type":[0,0,0,0,0,0,0,0,0,0,0,0,0,0,0,0,0,0,0,0,0,0,0,0,0,0,0,0,0,0,0,0,0,0,0,0,0,0,0,0,0,0,0,0,0,0,0,0,0,0,0,0,0,0,0,0,0,0,0,0,0,0,0,0,0,0,0,0,0,0,0,0,0,0,0,0,0,0,0,0,0,0,0,0,0,0,0,0,0,0,0,0,0,0,0,0,0,0,0,0,0,0,0],"sum_hessian":[3.841E3,2.063E3,1.778E3,1.816E3,2.47E2,1.501E3,2.77E2,1.558E3,2.58E2,8E1,1.67E2,5.31E2,9.7E2,1.1E2,1.67E2,5.29E2,1.029E3,5.6E1,2.02E2,1.35E2,3.2E1,3.39E2,1.92E2,5.85E2,3.85E2,3.2E1,7.8E1,1.05E2,6.2E1,2.01E2,3.28E2,4.29E2,6E2,2.6E1,3E1,1.33E2,6.9E1,5.4E1,8.1E1,1.44E2,1.95E2,1.22E2,7E1,3.17E2,2.68E2,2.14E2,1.71E2,1.6E1,1.6E1,4.2E1,3.6E1,3.9E1,6.6E1,2.2E1,4E1,1.2E2,8.1E1,2.24E2,1.04E2,1.8E2,2.49E2,2.8E2,3.2E2,1.8E1,8E0,1.1E1,1.9E1,9.3E1,4E1,3.4E1,3.5E1,9E0,4.5E1,3E1,5.1E1,8.9E1,5.5E1,1.33E2,6.2E1,6E1,6.2E1,2.8E1,4.2E1,1.17E2,2E2,8.9E1,1.79E2,1.07E2,1.07E2,1.23E2,4.8E1,1.1E1,5E0,7E0,3.5E1,2.4E1,1.2E1,2E1,1.9E1,2.3E1,4.3E1,5E0,1.7E1],"tree_param":{"num_deleted":"0","num_feature":"7","num_nodes":"103","size_leaf_vector":"1"}},{"base_weights":[-2.972893E1,5.781039E3,-6.875544E3,3.8091907E3,1.9172453E4,-8.932952E3,3.8153945E3,1.8976649E3,1.6113231E4,2.5563549E4,1.6012027E4,6.2978683E0,-1.382074E4,1.4078766E3,1.2016335E4,1.0418319E4,-2.6413623E3,1.3392024E4,2.3599895E4,1.1446511E3,1.5809902E3,1.2982552E4,1.4182446E3,-2.7786953E3,7.800226E3,-1.641621E4,-6.030844E3,-2.4637253E3,4.0462817E3,9.907578E3,7.602988E2,8.302369E3,1.8600176E4,-4.9267974E3,5.56747E3,8.232367E3,1.4741635E4,1.7738016E4,1.2754032E3,1.0258529E4,2.0332807E4,-4.5836284E3,5.374048E2,4.1335664E3,1.0614748E4,-1.868715E4,-1.28354375E4,-8.863265E3,-3.720235E3,-4.7972847E3,2.829757E1,1.1056613E3,6.3056196E3,3.6574274E2,5.773668E2,2.5900348E2,6.213405E2,7.9043866E2,1.0814469E3,-4.4789102E2,-1.1298409E2,1.4366283E2,4.6803107E2,1.5907329E2,4.697836E2,8.1201697E2,5.903295E2,4.868521E2,9.6112354E2,3.2904062E2,5.874614E2,8.090742E2,1.1402562E3,-3.7650607E2,-1.3914964E2,-7.171045E1,1.5248375E2,3.5674007E1,2.9983884E2,3.770809E2,6.7472516E2,-1.0717306E3,-8.374614E2,-7.58101E2,-5.3652704E2,-5.543422E2,-3.217187E2,-2.8176224E2,-4.1615387E1,-2.7149655E2,-1.4590984E2,-6.897933E1,3.216813E1,-5.4287167E1,1.1286491E2,2.1424258E2,4.3738312E2],"categories":[],"categories_nodes":[],"categories_segments":[],"categories_sizes":[],"default_left":[0,0,0,0,0,0,0,0,0,0,0,0,0,0,0,0,0,0,0,0,0,0,0,0,0,0,0,0,0,0,0,0,0,0,0,0,0,0,0,0,0,0,0,0,0,0,0,0,0,0,0,0,0,0,0,0,0,0,0,0,0,0,0,0,0,0,0,0,0,0,0,0,0,0,0,0,0,0,0,0,0,0,0,0,0,0,0,0,0,0,0,0,0,0,0,0,0],"id":3,"left_children":[1,3,5,7,9,11,13,15,17,19,21,23,25,27,29,31,33,35,37,-1,-1,39,-1,41,43,45,47,49,51,53,-1,55,57,59,61,63,65,67,-1,69,71,73,75,77,79,81,83,85,87,89,91,93,95,-1,-1,-1,-1,-1,-1,-1,-1,-1,-1,-1,-1,-1,-1,-1,-1,-1,-1,-1,-1,-1,-1,-1,-1,-1,-1,-1,-1,-1,-1,-1,-1,-1,-1,-1,-1,-1,-1,-1,-1,-1,-1,-1,-1],"loss_changes":[1.5370774E11,5.511517E10,3.9054328E10,4.2845454E10,5.003903E9,6.5015505E10,5.649585E9,6.109611E10,4.675277E9,6.832169E8,6.4426803E9,1.1460756E10,1.9351126E10,2.2878815E9,2.8654694E8,9.350083E9,1.9369765E10,1.1460035E9,2.6340966E8,0E0,0E0,2.7547095E9,0E0,2.33076E9,1.3905884E9,5.62312E9,1.5508234E9,5.2932666E8,8.76661E8,9.409331E7,0E0,5.5760794E9,6.049792E8,8.655981E9,2.2725043E9,2.051374E8,4.3728077E8,3.849472E7,0E0,5.2574106E8,3.1251456E7,1.3160448E9,6.8791917E8,3.908066E8,5.885194E8,1.9783844E9,1.2232172E9,5.119534E8,7.4191475E8,4.0027904E7,3.985489E7,1.5134925E8,3.326277E8,0E0,0E0,0E0,0E0,0E0,0E0,0E0,0E0,0E0,0E0,0E0,0E0,0E0,0E0,0E0,0E0,0E0,0E0,0E0,0E0,0E0,0E0,0E0,0E0,0E0,0E0,0E0,0E0,0E0,0E0,0E0,0E0,0E0,0E0,0E0,0E0,0E0,0E0,0E0,0E0,0E0,0E0,0E0,0E0],"parents":[2147483647,0,0,1,1,2,2,3,3,4,4,5,5,6,6,7,7,8,8,9,9,10,10,11,11,12,12,13,13,14,14,15,15,16,16,17,17,18,18,21,21,23,23,24,24,25,25,26,26,27,27,28,28,29,29,31,31,32,32,33,33,34,34,35,35,36,36,37,37,39,39,40,40,41,41,42,42,43,43,44,44,45,45,46,46,47,47,48,48,49,49,50,50,51,51,52,52],"right_children":[2,4,6,8,10,12,14,16,18,20,22,24,26,28,30,32,34,36,38,-1,-1,40,-1,42,44,46,48,50,52,54,-1,56,58,60,62,64,66,68,-1,70,72,74,76,78,80,82,84,86,88,90,92,94,96,-1,-1,-1,-1,-1,-1,-1,-1,-1,-1,-1,-1,-1,-1,-1,-1,-1,-1,-1,-1,-1,-1,-1,-1,-1,-1,-1,-1,-1,-1,-1,-1,-1,-1,-1,-1,-1,-1,-1,-1,-1,-1,-1,-1],"split_conditions":[5E0,4E0,2E0,2E0,1E0,1E0,1E0,1E0,1E0,1E0,2E0,1E0,1E0,2E0,3E0,1E0,1E0,2.9E1,3.7E1,1.1446511E3,1.5809902E3,1E0,1.4182446E3,3E0,2E0,3E0,2E0,3.9E1,4E1,4.1E1,7.602988E2,3E0,3E0,2E0,3E0,1E0,3E0,1E0,1.2754032E3,2E0,2E0,3.8E1,4.7E1,3.4E1,4.5E1,3.8E1,4.4E1,4.3E1,4.6E1,3.1E1,4.6E1,3E0,4E0,3.6574274E2,5.773668E2,2.5900348E2,6.213405E2,7.9043866E2,1.0814469E3,-4.4789102E2,-1.1298409E2,1.4366283E2,4.6803107E2,1.5907329E2,4.697836E2,8.1201697E2,5.903295E2,4.868521E2,9.6112354E2,3.2904062E2,5.874614E2,8.090742E2,1.1402562E3,-3.7650607E2,-1.3914964E2,-7.171045E1,1.5248375E2,3.5674007E1,2.9983884E2,3.770809E2,6.7472516E2,-1.0717306E3,-8.374614E2,-7.58101E2,-5.3652704E2,-5.543422E2,-3.217187E2,-2.8176224E2,-4.1615387E1,-2.7149655E2,-1.4590984E2,-6.897933E1,3.216813E1,-5.4287167E1,1.1286491E2,2.1424258E2,4.3738312E2],"split_indices":[5,5,6,6,6,6,4,6,4,4,6,4,4,3,3,4,4,0,0,0,0,4,0,3,3,3,3,0,0,0,0,3,3,3,3,5,5,3,0,3,3,0,0,0,0,0,0,0,0,0,0,3,3,0,0,0,0,0,0,0,0,0,0,0,0,0,0,0,0,0,0,0,0,0,0,0,0,0,0,0,0,0,0,0,0,0,0,0,0,0,0,0,0,0,0,0,0],"split_type":[0,0,0,0,0,0,0,0,0,0,0,0,0,0,0,0,0,0,0,0,0,0,0,0,0,0,0,0,0,0,0,0,0,0,0,0,0,0,0,0,0,0,0,0,0,0,0,0,0,0,0,0,0,0,0,0,0,0,0,0,0,0,0,0,0,0,0,0,0,0,0,0,0,0,0,0,0,0,0,0,0,0,0,0,0,0,0,0,0,0,0,0,0,0,0,0,0],"sum_hessian":[3.862E3,2.089E3,1.773E3,1.822E3,2.67E2,1.487E3,2.86E2,1.578E3,2.44E2,8.6E1,1.81E2,5.26E2,9.61E2,2.22E2,6.4E1,5.48E2,1.03E3,1.81E2,6.3E1,6.3E1,2.3E1,1.47E2,3.4E1,3.88E2,1.38E2,7.2E2,2.41E2,9E1,1.32E2,4.1E1,2.3E1,4.37E2,1.11E2,8.06E2,2.24E2,3.9E1,1.42E2,1.8E1,4.5E1,1.09E2,3.8E1,2.51E2,1.37E2,6.1E1,7.7E1,4.38E2,2.82E2,1.07E2,1.34E2,4.6E1,4.4E1,5.8E1,7.4E1,1.8E1,2.3E1,2.5E2,1.87E2,6.1E1,5E1,3.2E2,4.86E2,1.32E2,9.2E1,8E0,3.1E1,9.1E1,5.1E1,4E0,1.4E1,3.3E1,7.6E1,1.7E1,2.1E1,9.4E1,1.57E2,7.7E1,6E1,2.2E1,3.9E1,3.9E1,3.8E1,1.77E2,2.61E2,1.31E2,1.51E2,5.4E1,5.3E1,8E1,5.4E1,3.3E1,1.3E1,1.3E1,3.1E1,2E1,3.8E1,4.2E1,3.2E1],"tree_param":{"num_deleted":"0","num_feature":"7","num_nodes":"97","size_leaf_vector":"1"}},{"base_weights":[5.194847E1,-1.8009164E3,1.0751499E4,6.5585947E3,-6.501289E3,8.303531E3,1.7968863E4,4.4058594E3,1.34057705E4,-8.890792E3,1.1029392E3,6.249366E3,1.2831372E4,1.5041881E4,1.1476986E3,1.7175093E3,8.471134E3,1.0528183E4,1.7876363E4,-1.1541585E4,-4.884047E3,-5.1585895E2,7.170663E3,2.2009377E3,8.97415E3,1.0943505E4,1.5051351E4,1.07248955E4,1.6557057E4,-7.9166895E2,5.267333E3,6.477536E3,1.1755374E4,6.0321514E3,1.2049804E4,7.545523E2,9.990512E2,-1.480321E4,-9.316755E3,-6.9482593E3,-1.4088633E3,-2.9627766E3,3.5494634E3,3.3564172E3,1.0516304E4,-1.8715687E1,3.7866716E3,5.9580894E3,1.0026839E4,7.34445E3,1.2207129E4,3.645472E2,7.671042E2,8.403487E1,5.5040533E2,2.4281133E2,8.330381E2,-2.103313E2,1.6552086E1,1.897206E2,3.7586426E2,2.642911E2,3.8827686E2,4.714558E2,6.305555E2,1.0158572E2,4.153588E2,5.293813E2,7.11048E2,-7.8453375E2,-6.40523E2,-5.937814E2,-4.014868E2,-4.170564E2,-2.590987E2,-1.6612083E2,2.74345E1,-3.123411E2,-7.691992E1,4.8408936E1,2.2238394E2,1.972251E1,2.5513794E2,4.392004E2,7.785256E2,-6.717613E1,8.9434494E1,-1.21833084E2,2.2584154E2,5.34088E2,2.642949E2,4.006402E2,5.437071E2,1.564806E2,4.364707E2,6.538815E2,4.2278662E2],"categories":[],"categories_nodes":[],"categories_segments":[],"categories_sizes":[],"default_left":[0,0,0,0,0,0,0,0,0,0,0,0,0,0,0,0,0,0,0,0,0,0,0,0,0,0,0,0,0,0,0,0,0,0,0,0,0,0,0,0,0,0,0,0,0,0,0,0,0,0,0,0,0,0,0,0,0,0,0,0,0,0,0,0,0,0,0,0,0,0,0,0,0,0,0,0,0,0,0,0,0,0,0,0,0,0,0,0,0,0,0,0,0,0,0,0,0],"id":4,"left_children":[1,3,5,7,9,11,13,15,17,19,21,23,25,27,-1,29,31,33,35,37,39,41,43,45,47,49,51,53,55,57,59,61,63,65,67,-1,-1,69,71,73,75,77,79,81,83,85,87,89,91,93,95,-1,-1,-1,-1,-1,-1,-1,-1,-1,-1,-1,-1,-1,-1,-1,-1,-1,-1,-1,-1,-1,-1,-1,-1,-1,-1,-1,-1,-1,-1,-1,-1,-1,-1,-1,-1,-1,-1,-1,-1,-1,-1,-1,-1,-1,-1],"loss_changes":[7.628545E10,1.2892308E11,9.886151E9,1.7349063E10,3.816748E10,3.8820106E9,1.7412874E9,9.82144E9,3.4395955E9,1.6916079E10,4.9443763E9,3.2344218E9,3.8849946E8,4.3073946E8,0E0,4.840747E9,2.2678426E9,1.117694E9,3.3744077E8,6.8356424E9,4.566915E9,3.9696246E9,1.3173786E9,4.224444E8,4.990546E8,2.51435E8,1.9002368E7,5.0657024E7,3.93216E5,1.2244412E9,7.1712666E8,3.0431232E8,1.4783693E8,4.017724E8,2.5895936E8,0E0,0E0,4.85163E8,1.7950065E9,9.4085734E8,8.9708896E8,1.1551432E9,3.4347648E8,2.6179008E8,3.5352986E8,1.2452076E8,3.290875E8,9.594739E7,1.3300531E8,1.011031E8,6.576128E7,0E0,0E0,0E0,0E0,0E0,0E0,0E0,0E0,0E0,0E0,0E0,0E0,0E0,0E0,0E0,0E0,0E0,0E0,0E0,0E0,0E0,0E0,0E0,0E0,0E0,0E0,0E0,0E0,0E0,0E0,0E0,0E0,0E0,0E0,0E0,0E0,0E0,0E0,0E0,0E0,0E0,0E0,0E0,0E0,0E0,0E0],"parents":[2147483647,0,0,1,1,2,2,3,3,4,4,5,5,6,6,7,7,8,8,9,9,10,10,11,11,12,12,13,13,15,15,16,16,17,17,18,18,19,19,20,20,21,21,22,22,23,23,24,24,25,25,26,26,27,27,28,28,29,29,30,30,31,31,32,32,33,33,34,34,37,37,38,38,39,39,40,40,41,41,42,42,43,43,44,44,45,45,46,46,47,47,48,48,49,49,50,50],"right_children":[2,4,6,8,10,12,14,16,18,20,22,24,26,28,-1,30,32,34,36,38,40,42,44,46,48,50,52,54,56,58,60,62,64,66,68,-1,-1,70,72,74,76,78,80,82,84,86,88,90,92,94,96,-1,-1,-1,-1,-1,-1,-1,-1,-1,-1,-1,-1,-1,-1,-1,-1,-1,-1,-1,-1,-1,-1,-1,-1,-1,-1,-1,-1,-1,-1,-1,-1,-1,-1,-1,-1,-1,-1,-1,-1,-1,-1,-1,-1,-1,-1],"split_conditions":[2E0,1E0,1E0,1E0,1E0,5.4E1,5.4E1,3E0,3E0,3E0,4E0,2E0,3E0,1E0,1.1476986E3,4.9E1,5.1E1,3.2E1,4.6E1,3.9E1,5.2E1,5.1E1,4E1,1E0,2.9E1,2.07E1,5.5E1,2.1E1,1.24E1,2.7E1,2E0,3.7E1,5.7E1,1E0,5.3E1,7.545523E2,9.990512E2,2E0,1E0,4E0,2.39E1,1E0,2.14E1,2.4E1,6.4E1,3.8E1,2.1E1,1.88E1,3E0,5.7E1,2.7E1,3.645472E2,7.671042E2,8.403487E1,5.5040533E2,2.4281133E2,8.330381E2,-2.103313E2,1.6552086E1,1.897206E2,3.7586426E2,2.642911E2,3.8827686E2,4.714558E2,6.305555E2,1.0158572E2,4.153588E2,5.293813E2,7.11048E2,-7.8453375E2,-6.40523E2,-5.937814E2,-4.014868E2,-4.170564E2,-2.590987E2,-1.6612083E2,2.74345E1,-3.123411E2,-7.691992E1,4.8408936E1,2.2238394E2,1.972251E1,2.5513794E2,4.392004E2,7.785256E2,-6.717613E1,8.9434494E1,-1.21833084E2,2.2584154E2,5.34088E2,2.642949E2,4.006402E2,5.437071E2,1.564806E2,4.364707E2,6.538815E2,4.2278662E2],"split_indices":[6,6,4,4,4,0,0,3,3,3,3,3,3,3,0,0,0,0,0,0,0,0,0,3,0,2,0,0,2,0,3,0,0,3,0,0,0,3,3,3,2,3,2,0,0,0,0,2,3,0,2,0,0,0,0,0,0,0,0,0,0,0,0,0,0,0,0,0,0,0,0,0,0,0,0,0,0,0,0,0,0,0,0,0,0,0,0,0,0,0,0,0,0,0,0,0,0],"split_type":[0,0,0,0,0,0,0,0,0,0,0,0,0,0,0,0,0,0,0,0,0,0,0,0,0,0,0,0,0,0,0,0,0,0,0,0,0,0,0,0,0,0,0,0,0,0,0,0,0,0,0,0,0,0,0,0,0,0,0,0,0,0,0,0,0,0,0,0,0,0,0,0,0,0,0,0,0,0,0,0,0,0,0,0,0,0,0,0,0,0,0,0,0,0,0,0,0],"sum_hessian":[3.846E3,3.279E3,5.67E2,1.18E3,2.099E3,4.25E2,1.42E2,8.99E2,2.81E2,1.597E3,5.02E2,2.94E2,1.31E2,9.2E1,5E1,5.42E2,3.57E2,1.73E2,1.08E2,9.6E2,6.37E2,3.97E2,1.05E2,1.19E2,1.75E2,7.4E1,5.7E1,2.6E1,6.6E1,3.18E2,2.24E2,2.24E2,1.33E2,4.5E1,1.28E2,5E1,5.8E1,3.87E2,5.73E2,3.99E2,2.38E2,2.48E2,1.49E2,5E1,5.5E1,5E1,6.9E1,4.7E1,1.28E2,2.1E1,5.3E1,3E0,5.4E1,1E0,2.5E1,1E0,6.5E1,7.8E1,2.4E2,1.37E2,8.7E1,1.19E2,1.05E2,3.9E1,9.4E1,1.7E1,2.8E1,8E1,4.8E1,2.63E2,1.24E2,1.89E2,3.84E2,2.21E2,1.78E2,1.2E2,1.18E2,7.4E1,1.74E2,3.9E1,1.1E2,1.9E1,3.1E1,4.3E1,1.2E1,2.9E1,2.1E1,7E0,6.2E1,4E0,4.3E1,4.1E1,8.7E1,6E0,1.5E1,4.1E1,1.2E1],"tree_param":{"num_deleted":"0","num_feature":"7","num_nodes":"97","size_leaf_vector":"1"}},{"base_weights":[-3.4145584E0,5.708144E3,-6.579199E3,4.023847E3,1.8125459E4,-9.089088E3,7.028677E2,2.183632E3,1.4468511E4,1.6496996E4,1.3897101E3,-2.700516E3,-1.1847695E4,-1.1572256E3,1.1442776E4,9.860281E3,-1.9351111E3,1.2223006E4,2.0773781E4,2.3140018E4,1.2718978E4,-5.574232E3,-8.8196704E2,-1.5329219E4,8.555866E2,6.8043096E3,-5.589713E3,4.2465192E2,7.156961E2,8.0393853E3,1.7327428E4,-4.196195E3,5.510645E3,9.831E3,1.4786689E4,7.287394E2,1.0902522E3,2.1449857E4,1.4068748E3,1.0221099E4,1.902337E4,-3.2630792E2,-4.8036396E3,-2.5217742E3,3.198505E2,-1.7238564E4,-1.1973414E4,-1.3552114E3,4.668108E3,4.832964E3,1.05231045E4,-8.506832E3,-3.4626565E3,1.8311467E2,5.2817804E2,7.4081494E2,1.0113066E3,-3.888354E2,-9.103355E1,7.887486E1,4.231705E2,3.3921927E2,6.17021E2,5.0893814E2,7.85978E2,9.769638E2,1.3003182E3,4.4673834E2,6.707841E2,2.6873184E2,9.623496E2,-2.4478885E2,-7.9937355E1,-1.3468913E2,1.355851E1,-2.6766844E1,5.794707E1,-9.688551E2,-8.039008E2,-6.4802045E2,-5.452519E2,-1.21119934E2,4.841954E1,1.4307785E2,2.8225146E2,1.4149141E2,3.070851E2,3.9339017E2,5.802443E2,-4.6887265E2,-3.7296387E2,-2.1585501E2,-8.508023E1],"categories":[],"categories_nodes":[],"categories_segments":[],"categories_sizes":[],"default_left":[0,0,0,0,0,0,0,0,0,0,0,0,0,0,0,0,0,0,0,0,0,0,0,0,0,0,0,0,0,0,0,0,0,0,0,0,0,0,0,0,0,0,0,0,0,0,0,0,0,0,0,0,0,0,0,0,0,0,0,0,0,0,0,0,0,0,0,0,0,0,0,0,0,0,0,0,0,0,0,0,0,0,0,0,0,0,0,0,0,0,0,0,0],"id":5,"left_children":[1,3,5,7,9,11,13,15,17,19,-1,21,23,25,27,29,31,33,35,37,39,41,43,45,47,49,51,-1,-1,53,55,57,59,61,63,-1,-1,65,-1,67,69,-1,71,73,75,77,79,81,83,85,87,89,91,-1,-1,-1,-1,-1,-1,-1,-1,-1,-1,-1,-1,-1,-1,-1,-1,-1,-1,-1,-1,-1,-1,-1,-1,-1,-1,-1,-1,-1,-1,-1,-1,-1,-1,-1,-1,-1,-1,-1,-1],"loss_changes":[1.447109E11,4.305266E10,3.2740819E10,3.489192E10,3.414786E9,2.3442596E10,9.202769E9,4.8900735E10,3.5971973E9,5.051445E9,0E0,2.1011592E9,4.1144017E10,1.3906769E10,4.543324E8,7.203029E9,1.697645E10,1.0994995E9,1.296896E8,3.839181E7,1.9787305E9,8.308378E7,4.895524E8,4.4709806E9,1.7004977E9,9.828178E8,1.5403776E9,0E0,0E0,4.7784796E9,4.6461952E8,6.5606636E9,2.7158595E9,7.4196275E8,2.5265971E8,0E0,0E0,2.2892544E7,0E0,2.9517312E8,1.2536832E7,0E0,1.87488E7,5.117357E7,1.03951944E8,8.3756646E8,1.4127104E8,3.1974976E8,1.1444608E8,2.2904858E8,4.6573056E7,2.6725376E7,2.1535258E8,0E0,0E0,0E0,0E0,0E0,0E0,0E0,0E0,0E0,0E0,0E0,0E0,0E0,0E0,0E0,0E0,0E0,0E0,0E0,0E0,0E0,0E0,0E0,0E0,0E0,0E0,0E0,0E0,0E0,0E0,0E0,0E0,0E0,0E0,0E0,0E0,0E0,0E0,0E0,0E0],"parents":[2147483647,0,0,1,1,2,2,3,3,4,4,5,5,6,6,7,7,8,8,9,9,11,11,12,12,13,13,14,14,15,15,16,16,17,17,18,18,19,19,20,20,21,21,22,22,23,23,24,24,25,25,26,26,29,29,30,30,31,31,32,32,33,33,34,34,37,37,39,39,40,40,42,42,43,43,44,44,45,45,46,46,47,47,48,48,49,49,50,50,51,51,52,52],"right_children":[2,4,6,8,10,12,14,16,18,20,-1,22,24,26,28,30,32,34,36,38,40,42,44,46,48,50,52,-1,-1,54,56,58,60,62,64,-1,-1,66,-1,68,70,-1,72,74,76,78,80,82,84,86,88,90,92,-1,-1,-1,-1,-1,-1,-1,-1,-1,-1,-1,-1,-1,-1,-1,-1,-1,-1,-1,-1,-1,-1,-1,-1,-1,-1,-1,-1,-1,-1,-1,-1,-1,-1,-1,-1,-1,-1,-1,-1],"split_conditions":[5E0,4E0,1E0,2E0,2E0,1E0,2E0,1E0,1E0,1E0,1.3897101E3,2E0,2E0,1E0,3E0,1E0,1E0,3E0,1E0,1E0,1E0,1E0,3E0,3E0,3E0,3E0,2E0,4.2465192E2,7.156961E2,2E0,3E0,2E0,2E0,2E0,1E0,7.287394E2,1.0902522E3,4E0,1.4068748E3,4E0,1.49E1,-3.2630792E2,3.11E1,3.03E1,4E0,1E0,4E0,2E0,4E0,1E0,4E0,1E0,4E0,1.8311467E2,5.2817804E2,7.4081494E2,1.0113066E3,-3.888354E2,-9.103355E1,7.887486E1,4.231705E2,3.3921927E2,6.17021E2,5.0893814E2,7.85978E2,9.769638E2,1.3003182E3,4.4673834E2,6.707841E2,2.6873184E2,9.623496E2,-2.4478885E2,-7.9937355E1,-1.3468913E2,1.355851E1,-2.6766844E1,5.794707E1,-9.688551E2,-8.039008E2,-6.4802045E2,-5.452519E2,-1.21119934E2,4.841954E1,1.4307785E2,2.8225146E2,1.4149141E2,3.070851E2,3.9339017E2,5.802443E2,-4.6887265E2,-3.7296387E2,-2.1585501E2,-8.508023E1],"split_indices":[5,5,4,6,6,6,6,6,4,6,0,3,6,6,3,4,4,3,5,4,4,3,3,3,3,3,3,0,0,3,3,3,3,5,5,0,0,3,0,3,2,0,2,2,3,3,3,3,3,3,3,3,3,0,0,0,0,0,0,0,0,0,0,0,0,0,0,0,0,0,0,0,0,0,0,0,0,0,0,0,0,0,0,0,0,0,0,0,0,0,0,0,0],"split_type":[0,0,0,0,0,0,0,0,0,0,0,0,0,0,0,0,0,0,0,0,0,0,0,0,0,0,0,0,0,0,0,0,0,0,0,0,0,0,0,0,0,0,0,0,0,0,0,0,0,0,0,0,0,0,0,0,0,0,0,0,0,0,0,0,0,0,0,0,0,0,0,0,0,0,0,0,0,0,0,0,0,0,0,0,0,0,0,0,0,0,0,0,0],"sum_hessian":[3.851E3,2.061E3,1.79E3,1.816E3,2.45E2,1.331E3,4.59E2,1.545E3,2.71E2,2.12E2,3.3E1,4.02E2,9.29E2,3.92E2,6.7E1,5.39E2,1.006E3,2.02E2,6.9E1,7.5E1,1.37E2,1.55E2,2.47E2,7.29E2,2E2,1.4E2,2.52E2,3.5E1,3.2E1,4.35E2,1.04E2,7.72E2,2.34E2,1.07E2,9.5E1,1.2E1,5.7E1,6E1,1.5E1,1E2,3.7E1,6.6E1,8.9E1,1.04E2,1.43E2,4.62E2,2.67E2,1.27E2,7.3E1,9.3E1,4.7E1,1.05E2,1.47E2,1.6E2,2.75E2,5.9E1,4.5E1,3.07E2,4.65E2,1.01E2,1.33E2,5E1,5.7E1,1.8E1,7.7E1,4.6E1,1.4E1,7.4E1,2.6E1,1E0,3.6E1,8.6E1,3E0,9.8E1,6E0,7.1E1,7.2E1,1.57E2,3.05E2,1.33E2,1.34E2,8.7E1,4E1,2.7E1,4.6E1,3.8E1,5.5E1,1.6E1,3.1E1,5.3E1,5.2E1,9.8E1,4.9E1],"tree_param":{"num_deleted":"0","num_feature":"7","num_nodes":"93","size_leaf_vector":"1"}},{"base_weights":[3.2176037E1,5.325649E3,-6.248746E3,3.6610896E3,1.7777916E4,-8.6648955E3,9.590842E2,2.0153544E3,1.3810489E4,1.549662E4,2.440516E4,-1.04310625E4,8.2211975E2,-8.066227E2,1.03288545E4,9.292484E3,-1.8541129E3,1.1223043E4,2.1089152E4,1.3808879E4,1.1878163E3,1.4575979E3,2.1184293E4,-2.6486194E3,-1.4414352E4,-2.271524E3,3.1747114E3,6.617657E3,-5.471643E3,8.059719E3,6.542855E2,7.3569937E3,1.6613373E4,-4.136566E3,5.623395E3,8.894352E3,1.4342924E4,1.8189004E4,2.4604588E4,1.0179523E3,9.388677E3,9.506379E2,1.5160431E3,-5.460065E3,-7.1647723E2,-1.6281814E4,-1.1393954E4,-1.329546E3,-3.032576E3,5.1405067E1,4.0313381E3,3.6870947E3,9.119742E3,-8.0016875E3,-3.3399268E3,3.207626E2,4.533885E2,2.3778291E2,5.381623E2,7.232558E2,9.536921E2,-3.781614E2,-9.168987E1,1.240826E2,4.1781134E2,5.2299023E2,2.847972E2,4.6218384E2,7.642264E2,6.0353357E2,9.67069E2,1.4881399E3,9.246917E2,3.9177032E2,6.604727E2,-3.317621E2,-2.3152701E2,-1.2132045E2,1.4401779E1,-8.699381E2,-7.1698956E2,-6.175771E2,-5.15653E2,-9.265462E1,-4.4970547E1,-1.7386359E2,-1.1643776E2,1.4543825E2,2.3682564E2,1.2360126E2,2.4883987E2,3.7903232E2,5.523601E2,-4.5294492E2,-3.485512E2,-2.046111E2,-8.963274E1],"categories":[],"categories_nodes":[],"categories_segments":[],"categories_sizes":[],"default_left":[0,0,0,0,0,0,0,0,0,0,0,0,0,0,0,0,0,0,0,0,0,0,0,0,0,0,0,0,0,0,0,0,0,0,0,0,0,0,0,0,0,0,0,0,0,0,0,0,0,0,0,0,0,0,0,0,0,0,0,0,0,0,0,0,0,0,0,0,0,0,0,0,0,0,0,0,0,0,0,0,0,0,0,0,0,0,0,0,0,0,0,0,0,0,0,0,0],"id":6,"left_children":[1,3,5,7,9,11,13,15,17,19,21,23,25,27,29,31,33,35,37,39,-1,-1,41,43,45,47,49,51,53,55,-1,57,59,61,63,65,67,69,71,-1,73,-1,-1,75,77,79,81,83,85,-1,87,89,91,93,95,-1,-1,-1,-1,-1,-1,-1,-1,-1,-1,-1,-1,-1,-1,-1,-1,-1,-1,-1,-1,-1,-1,-1,-1,-1,-1,-1,-1,-1,-1,-1,-1,-1,-1,-1,-1,-1,-1,-1,-1,-1,-1],"loss_changes":[1.2743919E11,4.3048194E10,3.0537155E10,3.0639288E10,3.3258865E9,2.200875E10,7.304354E9,4.4536005E10,4.5846036E9,2.2508995E9,3.1505613E8,3.4278515E10,1.5137741E9,1.2920212E10,3.3242982E8,7.656837E9,1.7653535E10,1.2600893E9,2.2535578E8,4.3255316E9,0E0,0E0,2.17131E8,2.0385618E9,3.9433175E9,6.0488544E7,2.1283891E8,1.02225715E9,1.2083487E9,9.794048E6,0E0,3.8121247E9,3.266683E8,6.235651E9,2.0570394E9,5.012009E8,2.4283136E8,4.856115E7,3.0062694E8,0E0,4.6029568E8,0E0,0E0,1.1842611E8,3.854521E8,7.266222E8,1.6553984E8,7.791528E6,7.238624E6,0E0,5.2717696E7,9.425856E7,1.4467891E8,5.0171904E7,1.3932877E8,0E0,0E0,0E0,0E0,0E0,0E0,0E0,0E0,0E0,0E0,0E0,0E0,0E0,0E0,0E0,0E0,0E0,0E0,0E0,0E0,0E0,0E0,0E0,0E0,0E0,0E0,0E0,0E0,0E0,0E0,0E0,0E0,0E0,0E0,0E0,0E0,0E0,0E0,0E0,0E0,0E0,0E0],"parents":[2147483647,0,0,1,1,2,2,3,3,4,4,5,5,6,6,7,7,8,8,9,9,10,10,11,11,12,12,13,13,14,14,15,15,16,16,17,17,18,18,19,19,22,22,23,23,24,24,25,25,26,26,27,27,28,28,29,29,31,31,32,32,33,33,34,34,35,35,36,36,37,37,38,38,40,40,43,43,44,44,45,45,46,46,47,47,48,48,50,50,51,51,52,52,53,53,54,54],"right_children":[2,4,6,8,10,12,14,16,18,20,22,24,26,28,30,32,34,36,38,40,-1,-1,42,44,46,48,50,52,54,56,-1,58,60,62,64,66,68,70,72,-1,74,-1,-1,76,78,80,82,84,86,-1,88,90,92,94,96,-1,-1,-1,-1,-1,-1,-1,-1,-1,-1,-1,-1,-1,-1,-1,-1,-1,-1,-1,-1,-1,-1,-1,-1,-1,-1,-1,-1,-1,-1,-1,-1,-1,-1,-1,-1,-1,-1,-1,-1,-1,-1],"split_conditions":[5E0,4E0,1E0,2E0,1E0,2E0,2E0,1E0,1E0,2E0,1E0,1E0,2E0,1E0,3E0,1E0,1E0,3E0,2E0,1E0,1.1878163E3,1.4575979E3,2E0,2E0,3E0,1E0,3E0,2E0,2E0,1E0,6.542855E2,3E0,2E0,2E0,2E0,3E0,1E0,1E0,3E0,1.0179523E3,4E0,9.506379E2,1.5160431E3,1E0,3E0,2E0,4E0,1E0,1E0,5.1405067E1,4E0,1E0,4E0,1E0,4E0,3.207626E2,4.533885E2,2.3778291E2,5.381623E2,7.232558E2,9.536921E2,-3.781614E2,-9.168987E1,1.240826E2,4.1781134E2,5.2299023E2,2.847972E2,4.6218384E2,7.642264E2,6.0353357E2,9.67069E2,1.4881399E3,9.246917E2,3.9177032E2,6.604727E2,-3.317621E2,-2.3152701E2,-1.2132045E2,1.4401779E1,-8.699381E2,-7.1698956E2,-6.175771E2,-5.15653E2,-9.265462E1,-4.4970547E1,-1.7386359E2,-1.1643776E2,1.4543825E2,2.3682564E2,1.2360126E2,2.4883987E2,3.7903232E2,5.523601E2,-4.5294492E2,-3.485512E2,-2.046111E2,-8.963274E1],"split_indices":[5,5,4,6,4,6,6,6,4,6,6,6,3,6,3,4,4,3,5,6,0,0,6,3,3,1,3,3,3,3,0,3,5,3,5,5,5,3,5,0,3,0,0,3,3,3,3,3,3,0,3,3,3,3,3,0,0,0,0,0,0,0,0,0,0,0,0,0,0,0,0,0,0,0,0,0,0,0,0,0,0,0,0,0,0,0,0,0,0,0,0,0,0,0,0,0,0],"split_type":[0,0,0,0,0,0,0,0,0,0,0,0,0,0,0,0,0,0,0,0,0,0,0,0,0,0,0,0,0,0,0,0,0,0,0,0,0,0,0,0,0,0,0,0,0,0,0,0,0,0,0,0,0,0,0,0,0,0,0,0,0,0,0,0,0,0,0,0,0,0,0,0,0,0,0,0,0,0,0,0,0,0,0,0,0,0,0,0,0,0,0,0,0,0,0,0,0],"sum_hessian":[3.831E3,2.079E3,1.752E3,1.835E3,2.44E2,1.312E3,4.4E2,1.58E3,2.55E2,1.84E2,6E1,1.106E3,2.06E2,3.71E2,6.9E1,5.48E2,1.032E3,1.9E2,6.5E1,1.55E2,2.9E1,2.1E1,3.9E1,3.75E2,7.31E2,8.9E1,1.17E2,1.43E2,2.28E2,4E1,2.9E1,4.35E2,1.13E2,7.91E2,2.41E2,1.11E2,7.9E1,3.9E1,2.6E1,6.1E1,9.4E1,3.4E1,5E0,1.52E2,2.23E2,4.49E2,2.82E2,4.1E1,4.8E1,3.4E1,8.3E1,6.7E1,7.6E1,1.03E2,1.25E2,1.8E1,2.2E1,2.48E2,1.87E2,6.4E1,4.9E1,3.17E2,4.74E2,1.13E2,1.28E2,7.3E1,3.8E1,1.4E1,6.5E1,8E0,3.1E1,1.2E1,1.4E1,6.9E1,2.5E1,6E1,9.2E1,8.2E1,1.41E2,2.8E2,1.69E2,1.44E2,1.38E2,1.7E1,2.4E1,2.7E1,2.1E1,3.4E1,4.9E1,3.6E1,3.1E1,4.5E1,3.1E1,4.7E1,5.6E1,8.3E1,4.2E1],"tree_param":{"num_deleted":"0","num_feature":"7","num_nodes":"97","size_leaf_vector":"1"}},{"base_weights":[1.1038432E2,5.0262393E3,-5.818362E3,3.4177444E3,1.6564396E4,-7.4811016E3,3.2083682E3,1.7790206E3,1.3280477E4,2.196478E4,1.38467E4,-1.5504411E2,-1.1503389E4,8.050045E2,1.0621671E4,8.75229E3,-1.8721747E3,1.1134195E4,1.9215795E4,1.9642248E4,1.3524725E3,1.1505654E4,1.1974349E3,-2.39552E3,5.8780903E3,-1.3686791E4,-5.1629614E3,-1.8873729E3,3.1296082E3,8.414513E3,6.6977045E2,6.929936E3,1.5279031E4,-4.0376897E3,5.327178E3,8.501309E3,1.3654616E4,8.081589E2,1.0859696E3,8.0986664E2,1.069587E3,9.007678E3,1.7775203E4,-4.306824E3,-3.5745368E0,3.5880278E3,8.422221E3,-1.5894489E4,-1.1421881E4,-7.235082E3,-2.7987666E3,-2.9161462E3,-1.2043604E3,2.1333284E3,2.2310258E2,1.5122409E2,4.3093033E2,1.685746E2,4.438116E2,6.9190295E2,9.7339886E2,-3.6283737E2,-1.1937603E2,1.3265399E2,4.241643E2,4.9295587E2,2.807762E2,6.2776825E2,9.1091693E2,2.992578E2,5.316307E2,2.3824767E2,8.99331E2,-3.0018234E2,-1.6928741E2,-4.8577965E1,4.445811E1,6.1678844E1,2.2244595E2,3.275969E2,4.7604318E2,-8.798517E2,-7.5392645E2,-6.201071E2,-4.8462033E2,-4.1840015E2,-3.1917188E2,-1.9821838E2,-9.6522964E1,-2.1842188E1,-1.5580882E2,6.95884E1,-7.073256E1,1.212891E2,5.79579E-1],"categories":[],"categories_nodes":[],"categories_segments":[],"categories_sizes":[],"default_left":[0,0,0,0,0,0,0,0,0,0,0,0,0,0,0,0,0,0,0,0,0,0,0,0,0,0,0,0,0,0,0,0,0,0,0,0,0,0,0,0,0,0,0,0,0,0,0,0,0,0,0,0,0,0,0,0,0,0,0,0,0,0,0,0,0,0,0,0,0,0,0,0,0,0,0,0,0,0,0,0,0,0,0,0,0,0,0,0,0,0,0,0,0,0,0],"id":7,"left_children":[1,3,5,7,9,11,13,15,17,19,21,23,25,27,29,31,33,35,37,39,-1,41,-1,43,45,47,49,51,53,55,-1,57,59,61,63,65,67,-1,-1,-1,-1,69,71,73,75,77,79,81,83,85,87,89,91,93,-1,-1,-1,-1,-1,-1,-1,-1,-1,-1,-1,-1,-1,-1,-1,-1,-1,-1,-1,-1,-1,-1,-1,-1,-1,-1,-1,-1,-1,-1,-1,-1,-1,-1,-1,-1,-1,-1,-1,-1,-1],"loss_changes":[1.1296557E11,3.927005E10,2.6395E10,3.0054406E10,3.4970993E9,4.3727987E10,4.8732703E9,4.0677233E10,3.1618458E9,4.724777E8,3.8630748E9,7.1375887E9,1.3191602E10,1.3077185E9,2.974633E8,6.423941E9,1.6375742E10,1.1912049E9,1.762816E8,2.717696E7,0E0,2.0950979E9,0E0,1.7601029E9,8.029302E8,3.3786184E9,1.1897784E9,6.464643E7,1.3915942E8,1.7935872E7,0E0,2.955088E9,4.4890317E8,4.2694502E9,2.0283505E9,3.3255168E8,2.6791322E8,0E0,0E0,0E0,0E0,4.5206016E8,2.4318976E7,3.1413376E8,1.4949864E8,1.5058522E8,7.52896E7,2.3200563E8,4.8164045E8,7.297792E7,1.1076275E8,1.7484256E7,3.472537E7,4.0925504E7,0E0,0E0,0E0,0E0,0E0,0E0,0E0,0E0,0E0,0E0,0E0,0E0,0E0,0E0,0E0,0E0,0E0,0E0,0E0,0E0,0E0,0E0,0E0,0E0,0E0,0E0,0E0,0E0,0E0,0E0,0E0,0E0,0E0,0E0,0E0,0E0,0E0,0E0,0E0,0E0,0E0],"parents":[2147483647,0,0,1,1,2,2,3,3,4,4,5,5,6,6,7,7,8,8,9,9,10,10,11,11,12,12,13,13,14,14,15,15,16,16,17,17,18,18,19,19,21,21,23,23,24,24,25,25,26,26,27,27,28,28,29,29,31,31,32,32,33,33,34,34,35,35,36,36,41,41,42,42,43,43,44,44,45,45,46,46,47,47,48,48,49,49,50,50,51,51,52,52,53,53],"right_children":[2,4,6,8,10,12,14,16,18,20,22,24,26,28,30,32,34,36,38,40,-1,42,-1,44,46,48,50,52,54,56,-1,58,60,62,64,66,68,-1,-1,-1,-1,70,72,74,76,78,80,82,84,86,88,90,92,94,-1,-1,-1,-1,-1,-1,-1,-1,-1,-1,-1,-1,-1,-1,-1,-1,-1,-1,-1,-1,-1,-1,-1,-1,-1,-1,-1,-1,-1,-1,-1,-1,-1,-1,-1,-1,-1,-1,-1,-1,-1],"split_conditions":[5E0,4E0,2E0,2E0,1E0,1E0,1E0,1E0,1E0,1E0,2E0,1E0,1E0,4.1E1,5.1E1,1E0,1E0,4.5E1,4.4E1,4.1E1,1.3524725E3,1E0,1.1974349E3,4.7E1,4.5E1,4.4E1,4.3E1,2.6E1,5.7E1,2.1E1,6.6977045E2,3.8E1,5.5E1,3.7E1,4.7E1,3E0,6.5E1,8.081589E2,1.0859696E3,8.0986664E2,1.069587E3,3.7E1,2E1,2.9E1,5.8E1,2.6E1,5.4E1,2.6E1,6E1,2.7E1,5.3E1,1.9E1,2.7E1,2.89E1,2.2310258E2,1.5122409E2,4.3093033E2,1.685746E2,4.438116E2,6.9190295E2,9.7339886E2,-3.6283737E2,-1.1937603E2,1.3265399E2,4.241643E2,4.9295587E2,2.807762E2,6.2776825E2,9.1091693E2,2.992578E2,5.316307E2,2.3824767E2,8.99331E2,-3.0018234E2,-1.6928741E2,-4.8577965E1,4.445811E1,6.1678844E1,2.2244595E2,3.275969E2,4.7604318E2,-8.798517E2,-7.5392645E2,-6.201071E2,-4.8462033E2,-4.1840015E2,-3.1917188E2,-1.9821838E2,-9.6522964E1,-2.1842188E1,-1.5580882E2,6.95884E1,-7.073256E1,1.212891E2,5.79579E-1],"split_indices":[5,5,6,6,6,6,4,6,4,4,6,4,4,0,0,4,4,0,0,0,0,4,0,0,0,0,0,0,0,0,0,0,0,0,0,5,0,0,0,0,0,0,0,0,0,0,0,0,0,0,0,0,0,2,0,0,0,0,0,0,0,0,0,0,0,0,0,0,0,0,0,0,0,0,0,0,0,0,0,0,0,0,0,0,0,0,0,0,0,0,0,0,0,0,0],"split_type":[0,0,0,0,0,0,0,0,0,0,0,0,0,0,0,0,0,0,0,0,0,0,0,0,0,0,0,0,0,0,0,0,0,0,0,0,0,0,0,0,0,0,0,0,0,0,0,0,0,0,0,0,0,0,0,0,0,0,0,0,0,0,0,0,0,0,0,0,0,0,0,0,0,0,0,0,0,0,0,0,0,0,0,0,0,0,0,0,0,0,0,0,0,0,0],"sum_hessian":[3.874E3,2.118E3,1.756E3,1.86E3,2.58E2,1.483E3,2.73E2,1.596E3,2.64E2,8.4E1,1.74E2,5.26E2,9.57E2,2.07E2,6.6E1,5.48E2,1.048E3,1.96E2,6.8E1,6.1E1,2.3E1,1.43E2,3.1E1,3.84E2,1.42E2,7.11E2,2.46E2,9.6E1,1.11E2,3.9E1,2.7E1,4.3E2,1.18E2,8.06E2,2.42E2,9.8E1,9.8E1,3.4E1,3.4E1,2.4E1,3.7E1,1.04E2,3.9E1,2.13E2,1.71E2,7.6E1,6.6E1,3.57E2,3.54E2,1.3E2,1.16E2,3.7E1,5.9E1,6.5E1,4.6E1,2E0,3.7E1,1.53E2,2.77E2,9.1E1,2.7E1,2.72E2,5.34E2,1.32E2,1.1E2,6.5E1,3.3E1,8.2E1,1.6E1,3.8E1,6.6E1,1E0,3.8E1,7.3E1,1.4E2,8.2E1,8.9E1,2.1E1,5.5E1,2.7E1,3.9E1,1.09E2,2.48E2,2.22E2,1.32E2,5.2E1,7.8E1,4.8E1,6.8E1,3E0,3.4E1,4E0,5.5E1,5.7E1,8E0],"tree_param":{"num_deleted":"0","num_feature":"7","num_nodes":"95","size_leaf_vector":"1"}},{"base_weights":[-3.7590694E1,-1.5990897E3,8.760972E3,5.1709336E3,-5.302088E3,6.8108794E3,1.5120388E4,3.4397043E3,1.09053125E4,-7.2759287E3,1.1403323E3,4.8579585E3,1.0817209E4,1.2456258E4,1.8703854E4,1.1582672E3,6.88424E3,8.478566E3,1.45570205E4,-9.395725E3,-4.0289797E3,-8.754012E2,4.812319E3,9.589138E2,7.444911E3,6.47622E3,1.1931074E4,1.0103717E4,1.5259492E4,6.549541E2,9.96736E2,-2.1366313E3,3.2678882E3,4.577641E3,8.991542E3,5.1459736E3,9.620347E3,5.6648553E2,8.566304E2,-1.2344137E4,-7.402484E3,-5.6431934E3,-1.2143933E3,-6.2357407E3,5.2544763E2,1.5024022E3,7.465186E3,-1.0697139E2,2.5490483E3,5.152814E3,8.422726E3,9.138704E3,4.646409E3,6.240127E1,1.2013837E4,7.0040205E3,1.0653539E4,6.5889294E2,9.572895E2,-1.8299455E2,-5.3999447E1,1.1641249E2,3.3556454E2,3.4904117E2,2.0410045E2,3.628977E2,5.4304474E2,1.1267993E2,3.2821597E2,4.1769742E2,5.5700543E2,-6.872466E2,-5.482616E2,-4.4456427E2,-2.9442947E2,-3.688257E2,-2.144497E2,-1.482733E2,3.1131275E1,-4.4950055E2,-2.3447151E2,-4.2164433E1,2.0270259E2,-9.264687E0,1.409586E2,2.9725397E2,5.0758542E2,-7.773208E1,9.2083916E1,-7.848861E0,1.995765E2,1.6033331E2,3.1422437E2,3.9455463E2,6.218422E2,-3.021377E1,5.0396817E2,3.450468E2,1.513111E2,4.0677463E2,6.1542645E2,6.356307E2,2.47861E2,6.9124286E2,4.7457364E2],"categories":[],"categories_nodes":[],"categories_segments":[],"categories_sizes":[],"default_left":[0,0,0,0,0,0,0,0,0,0,0,0,0,0,0,0,0,0,0,0,0,0,0,0,0,0,0,0,0,0,0,0,0,0,0,0,0,0,0,0,0,0,0,0,0,0,0,0,0,0,0,0,0,0,0,0,0,0,0,0,0,0,0,0,0,0,0,0,0,0,0,0,0,0,0,0,0,0,0,0,0,0,0,0,0,0,0,0,0,0,0,0,0,0,0,0,0,0,0,0,0,0,0,0,0],"id":8,"left_children":[1,3,5,7,9,11,13,15,17,19,21,23,25,27,29,31,33,35,37,39,41,43,45,47,49,51,53,55,57,-1,-1,59,61,63,65,67,69,-1,-1,71,73,75,77,79,81,83,85,87,89,91,93,95,97,-1,99,101,103,-1,-1,-1,-1,-1,-1,-1,-1,-1,-1,-1,-1,-1,-1,-1,-1,-1,-1,-1,-1,-1,-1,-1,-1,-1,-1,-1,-1,-1,-1,-1,-1,-1,-1,-1,-1,-1,-1,-1,-1,-1,-1,-1,-1,-1,-1,-1,-1],"loss_changes":[5.314252E10,8.238033E10,7.1270646E9,1.1498273E10,2.7017744E10,3.4526208E9,1.065388E9,7.01752E9,2.260394E9,1.1153695E10,3.697684E9,3.0491151E9,6.286817E8,3.799941E8,1.2520448E8,3.753565E9,1.6892477E9,5.745285E8,6.869852E8,5.6856084E9,2.9190605E9,2.4286917E9,1.5429801E9,2.070506E8,3.645061E8,1.134368E8,8.66857E7,5.48352E6,3.0843904E7,0E0,0E0,3.3566035E8,1.0488712E9,1.7637274E8,5.2069888E8,1.6571162E8,1.3981594E8,0E0,0E0,6.122496E8,1.275181E9,9.283922E8,7.6100026E8,2.4319206E8,1.244659E9,1.7830694E8,3.3985997E8,2.116173E8,1.918928E8,1.0538483E8,1.7074893E8,1.1606854E8,5.5824096E7,0E0,3.01568E7,5.382432E7,8.822784E6,0E0,0E0,0E0,0E0,0E0,0E0,0E0,0E0,0E0,0E0,0E0,0E0,0E0,0E0,0E0,0E0,0E0,0E0,0E0,0E0,0E0,0E0,0E0,0E0,0E0,0E0,0E0,0E0,0E0,0E0,0E0,0E0,0E0,0E0,0E0,0E0,0E0,0E0,0E0,0E0,0E0,0E0,0E0,0E0,0E0,0E0,0E0,0E0],"parents":[2147483647,0,0,1,1,2,2,3,3,4,4,5,5,6,6,7,7,8,8,9,9,10,10,11,11,12,12,13,13,14,14,15,15,16,16,17,17,18,18,19,19,20,20,21,21,22,22,23,23,24,24,25,25,26,26,27,27,28,28,31,31,32,32,33,33,34,34,35,35,36,36,39,39,40,40,41,41,42,42,43,43,44,44,45,45,46,46,47,47,48,48,49,49,50,50,51,51,52,52,54,54,55,55,56,56],"right_children":[2,4,6,8,10,12,14,16,18,20,22,24,26,28,30,32,34,36,38,40,42,44,46,48,50,52,54,56,58,-1,-1,60,62,64,66,68,70,-1,-1,72,74,76,78,80,82,84,86,88,90,92,94,96,98,-1,100,102,104,-1,-1,-1,-1,-1,-1,-1,-1,-1,-1,-1,-1,-1,-1,-1,-1,-1,-1,-1,-1,-1,-1,-1,-1,-1,-1,-1,-1,-1,-1,-1,-1,-1,-1,-1,-1,-1,-1,-1,-1,-1,-1,-1,-1,-1,-1,-1,-1],"split_conditions":[2E0,1E0,1E0,1E0,1E0,5.4E1,5.2E1,3E0,3E0,3E0,5.1E1,2E0,1E0,3E0,1E0,3.8E1,4.3E1,3.2E1,4.6E1,3.9E1,5.2E1,1E0,2E0,2.57E1,2.9E1,5.9E1,1.05E1,2.6E1,3.9E1,6.549541E2,9.96736E2,2.7E1,6.3E1,1.98E1,4E0,1E0,5.1E1,5.6648553E2,8.566304E2,2.8E1,5.3E1,3.3E1,4E0,3.1E1,4E0,6.1E1,6.4E1,3.2E1,1E0,3E0,2.91E1,1.66E1,2.19E1,6.240127E1,5.6E1,2.13E1,3.1E1,6.5889294E2,9.572895E2,-1.8299455E2,-5.3999447E1,1.1641249E2,3.3556454E2,3.4904117E2,2.0410045E2,3.628977E2,5.4304474E2,1.1267993E2,3.2821597E2,4.1769742E2,5.5700543E2,-6.872466E2,-5.482616E2,-4.4456427E2,-2.9442947E2,-3.688257E2,-2.144497E2,-1.482733E2,3.1131275E1,-4.4950055E2,-2.3447151E2,-4.2164433E1,2.0270259E2,-9.264687E0,1.409586E2,2.9725397E2,5.0758542E2,-7.773208E1,9.2083916E1,-7.848861E0,1.995765E2,1.6033331E2,3.1422437E2,3.9455463E2,6.218422E2,-3.021377E1,5.0396817E2,3.450468E2,1.513111E2,4.0677463E2,6.1542645E2,6.356307E2,2.47861E2,6.9124286E2,4.7457364E2],"split_indices":[6,6,4,4,4,0,0,3,3,3,0,3,3,3,3,0,0,0,0,0,0,3,3,2,0,0,2,0,0,0,0,0,0,2,3,3,0,0,0,0,0,0,3,0,3,0,0,0,3,3,2,2,2,0,0,2,0,0,0,0,0,0,0,0,0,0,0,0,0,0,0,0,0,0,0,0,0,0,0,0,0,0,0,0,0,0,0,0,0,0,0,0,0,0,0,0,0,0,0,0,0,0,0,0,0],"split_type":[0,0,0,0,0,0,0,0,0,0,0,0,0,0,0,0,0,0,0,0,0,0,0,0,0,0,0,0,0,0,0,0,0,0,0,0,0,0,0,0,0,0,0,0,0,0,0,0,0,0,0,0,0,0,0,0,0,0,0,0,0,0,0,0,0,0,0,0,0,0,0,0,0,0,0,0,0,0,0,0,0,0,0,0,0,0,0,0,0,0,0,0,0,0,0,0,0,0,0,0,0,0,0,0,0],"sum_hessian":[3.866E3,3.284E3,5.82E2,1.161E3,2.123E3,4.47E2,1.35E2,8.93E2,2.68E2,1.625E3,4.98E2,3.02E2,1.45E2,8E1,5.5E1,5.38E2,3.55E2,1.63E2,1.05E2,9.82E2,6.43E2,3.22E2,1.76E2,1.21E2,1.81E2,3.1E1,1.14E2,4.6E1,3.4E1,1.2E1,4.3E1,2.1E2,3.28E2,1.71E2,1.84E2,4.3E1,1.2E2,4.9E1,5.6E1,3.94E2,5.88E2,4.08E2,2.35E2,6.6E1,2.56E2,7.9E1,9.7E1,7.3E1,4.8E1,5.6E1,1.25E2,1.1E1,2E1,1E0,1.13E2,9E0,3.7E1,2.5E1,9E0,8.5E1,1.25E2,2.59E2,6.9E1,2.7E1,1.44E2,9.8E1,8.6E1,1.5E1,2.8E1,6.9E1,5.1E1,1.91E2,2.03E2,2.94E2,2.94E2,1.77E2,2.31E2,1.2E2,1.15E2,2.2E1,4.4E1,1.85E2,7.1E1,3.5E1,4.4E1,6.4E1,3.3E1,4.2E1,3.1E1,1.7E1,3.1E1,2.2E1,3.4E1,1.13E2,1.2E1,1E0,1E1,7E0,1.3E1,1E1,1.03E2,1E0,8E0,7E0,3E1],"tree_param":{"num_deleted":"0","num_feature":"7","num_nodes":"105","size_leaf_vector":"1"}},{"base_weights":[-1.3565663E2,-1.5478186E3,7.943231E3,4.970514E3,-4.96536E3,6.0404814E3,1.3840732E4,3.2792878E3,1.0493015E4,-6.860598E3,8.441534E2,3.6119558E3,8.722619E3,1.1689522E4,1.821972E4,1.2009822E3,6.628575E3,8.057186E3,1.4047767E4,-8.883742E3,-3.7584731E3,-2.080352E3,3.2532158E3,3.7160263E2,6.2835835E3,4.858978E3,9.567615E3,4.6999814E2,7.3299536E2,9.7359515E2,6.007556E2,-7.315861E2,4.148865E3,5.3471084E3,1.0333043E4,4.079768E3,9.543504E3,1.1357358E4,8.2141046E2,-1.1042801E4,-6.532038E3,-5.491789E3,-7.128116E2,-5.0564893E3,9.3792255E2,1.219899E3,6.354467E3,-3.5093225E3,9.5813904E2,4.2859185E3,7.2668813E3,7.1379865E2,6.263737E3,8.1282646E3,1.0724739E4,-1.485873E2,3.0036116E1,1.2803636E2,3.3950757E2,1.8637193E2,3.2849716E2,7.305157E1,5.265808E2,6.3899014E1,3.0390378E2,3.9161948E2,5.175834E2,6.1437E2,4.523185E2,-6.529897E2,-4.975082E2,-4.306732E2,-2.7435675E2,-3.377573E2,-2.000026E2,-1.1999918E2,5.421058E1,-3.3111752E2,-1.7038676E2,-2.5856043E1,1.4926628E2,-1.7712758E-1,1.4419135E2,2.2988211E2,4.8300668E2,-2.2190062E2,-4.750395E1,6.8639665E0,1.1771958E2,-7.2681595E1,2.3706702E2,2.840265E2,4.2096848E2,1.5145479E2,8.967969E0,2.572513E2,5.984712E2,4.88597E2,3.4612534E2,6.0841213E1,5.408949E2],"categories":[],"categories_nodes":[],"categories_segments":[],"categories_sizes":[],"default_left":[0,0,0,0,0,0,0,0,0,0,0,0,0,0,0,0,0,0,0,0,0,0,0,0,0,0,0,0,0,0,0,0,0,0,0,0,0,0,0,0,0,0,0,0,0,0,0,0,0,0,0,0,0,0,0,0,0,0,0,0,0,0,0,0,0,0,0,0,0,0,0,0,0,0,0,0,0,0,0,0,0,0,0,0,0,0,0,0,0,0,0,0,0,0,0,0,0,0,0,0,0],"id":9,"left_children":[1,3,5,7,9,11,13,15,17,19,21,23,25,27,29,31,33,35,37,39,41,43,45,47,49,51,53,-1,-1,-1,-1,55,57,59,61,63,65,67,-1,69,71,73,75,77,79,81,83,85,87,89,91,93,95,97,99,-1,-1,-1,-1,-1,-1,-1,-1,-1,-1,-1,-1,-1,-1,-1,-1,-1,-1,-1,-1,-1,-1,-1,-1,-1,-1,-1,-1,-1,-1,-1,-1,-1,-1,-1,-1,-1,-1,-1,-1,-1,-1,-1,-1,-1,-1],"loss_changes":[4.393578E10,7.3047605E10,6.3463014E9,1.0500882E10,2.3689187E10,2.8019282E9,1.0964173E9,6.0131686E9,2.1727314E9,1.0146357E10,3.7407857E9,1.9887793E9,6.260511E8,5.150812E8,1.0789171E8,3.0509222E9,1.5160556E9,9.010268E8,4.9228186E8,4.9088594E9,3.385264E9,2.1606147E9,1.8272428E9,2.4237434E8,2.1635635E8,2.2262496E8,1.926318E8,0E0,0E0,0E0,0E0,9.687904E8,8.718945E8,4.666972E8,1.3260083E8,2.441799E8,7.794995E7,2.758144E6,0E0,9.940132E8,9.79286E8,7.437783E8,7.1206374E8,2.8982093E8,3.5903104E8,3.6033235E8,6.234465E8,2.9057936E7,1.0512051E8,1.2190432E8,1.0391859E8,1.3067946E7,1.2352448E8,8.892211E7,6.655283E7,0E0,0E0,0E0,0E0,0E0,0E0,0E0,0E0,0E0,0E0,0E0,0E0,0E0,0E0,0E0,0E0,0E0,0E0,0E0,0E0,0E0,0E0,0E0,0E0,0E0,0E0,0E0,0E0,0E0,0E0,0E0,0E0,0E0,0E0,0E0,0E0,0E0,0E0,0E0,0E0,0E0,0E0,0E0,0E0,0E0,0E0],"parents":[2147483647,0,0,1,1,2,2,3,3,4,4,5,5,6,6,7,7,8,8,9,9,10,10,11,11,12,12,13,13,14,14,15,15,16,16,17,17,18,18,19,19,20,20,21,21,22,22,23,23,24,24,25,25,26,26,31,31,32,32,33,33,34,34,35,35,36,36,37,37,39,39,40,40,41,41,42,42,43,43,44,44,45,45,46,46,47,47,48,48,49,49,50,50,51,51,52,52,53,53,54,54],"right_children":[2,4,6,8,10,12,14,16,18,20,22,24,26,28,30,32,34,36,38,40,42,44,46,48,50,52,54,-1,-1,-1,-1,56,58,60,62,64,66,68,-1,70,72,74,76,78,80,82,84,86,88,90,92,94,96,98,100,-1,-1,-1,-1,-1,-1,-1,-1,-1,-1,-1,-1,-1,-1,-1,-1,-1,-1,-1,-1,-1,-1,-1,-1,-1,-1,-1,-1,-1,-1,-1,-1,-1,-1,-1,-1,-1,-1,-1,-1,-1,-1,-1,-1,-1,-1],"split_conditions":[2E0,1E0,1E0,1E0,1E0,4.6E1,5.4E1,3E0,3E0,3E0,2E0,2E0,1E0,3E0,2.78E1,4.9E1,5.7E1,3.2E1,4.6E1,4.5E1,5.2E1,4.4E1,4.8E1,2.1E1,3E0,5.2E1,5.7E1,4.6999814E2,7.3299536E2,9.7359515E2,6.007556E2,3.1E1,2E0,3.7E1,1.66E1,1E0,1E0,3.7E1,8.2141046E2,1E0,1E0,3.7E1,4E0,1E0,6E1,4E0,4E0,2.4E1,2.58E1,2E1,3E1,1.79E1,2.88E1,5E1,1.05E1,-1.485873E2,3.0036116E1,1.2803636E2,3.3950757E2,1.8637193E2,3.2849716E2,7.305157E1,5.265808E2,6.3899014E1,3.0390378E2,3.9161948E2,5.175834E2,6.1437E2,4.523185E2,-6.529897E2,-4.975082E2,-4.306732E2,-2.7435675E2,-3.377573E2,-2.000026E2,-1.1999918E2,5.421058E1,-3.3111752E2,-1.7038676E2,-2.5856043E1,1.4926628E2,-1.7712758E-1,1.4419135E2,2.2988211E2,4.8300668E2,-2.2190062E2,-4.750395E1,6.8639665E0,1.1771958E2,-7.2681595E1,2.3706702E2,2.840265E2,4.2096848E2,1.5145479E2,8.967969E0,2.572513E2,5.984712E2,4.88597E2,3.4612534E2,6.0841213E1,5.408949E2],"split_indices":[6,6,4,4,4,0,0,3,3,3,3,3,3,3,2,0,0,0,0,0,0,0,0,0,3,0,0,0,0,0,0,0,3,0,2,3,3,0,0,3,3,0,3,3,0,3,3,2,2,0,0,2,2,0,2,0,0,0,0,0,0,0,0,0,0,0,0,0,0,0,0,0,0,0,0,0,0,0,0,0,0,0,0,0,0,0,0,0,0,0,0,0,0,0,0,0,0,0,0,0,0],"split_type":[0,0,0,0,0,0,0,0,0,0,0,0,0,0,0,0,0,0,0,0,0,0,0,0,0,0,0,0,0,0,0,0,0,0,0,0,0,0,0,0,0,0,0,0,0,0,0,0,0,0,0,0,0,0,0,0,0,0,0,0,0,0,0,0,0,0,0,0,0,0,0,0,0,0,0,0,0,0,0,0,0,0,0,0,0,0,0,0,0,0,0,0,0,0,0,0,0,0,0,0,0],"sum_hessian":[3.849E3,3.277E3,5.72E2,1.127E3,2.15E3,4.34E2,1.38E2,8.64E2,2.63E2,1.621E3,5.29E2,2.29E2,2.05E2,9.5E1,4.3E1,5.34E2,3.3E2,1.58E2,1.05E2,9.8E2,6.41E2,2.39E2,2.9E2,1.04E2,1.25E2,3.8E1,1.67E2,5.6E1,3.9E1,3.4E1,9E0,3.23E2,2.11E2,2.47E2,8.3E1,4.4E1,1.14E2,5.2E1,5.3E1,5.09E2,4.71E2,4.08E2,2.33E2,1.2E2,1.19E2,1.76E2,1.14E2,1.3E1,9.1E1,4.3E1,8.2E1,1E1,2.8E1,7.8E1,8.9E1,1.2E2,2.03E2,1.33E2,7.8E1,1.08E2,1.39E2,2E0,8.1E1,1.9E1,2.5E1,4E1,7.4E1,3.4E1,1.8E1,1.75E2,3.34E2,1.55E2,3.16E2,2.19E2,1.89E2,1.2E2,1.13E2,6E1,6E1,7E1,4.9E1,1.02E2,7.4E1,7.6E1,3.8E1,9E0,4E0,5.8E1,3.3E1,3E0,4E1,3.7E1,4.5E1,1E0,9E0,2.5E1,3E0,3E1,4.8E1,1E0,8.8E1],"tree_param":{"num_deleted":"0","num_feature":"7","num_nodes":"101","size_leaf_vector":"1"}},{"base_weights":[-1.8662064E2,-1.5103181E3,7.5606787E3,4.5515977E3,-4.785849E3,5.8491636E3,1.323786E4,3.0066973E3,9.554167E3,-6.5592944E3,8.740689E2,4.157372E3,9.463411E3,1.1121148E4,8.581713E2,9.8142944E2,6.007289E3,7.540141E3,1.2310077E4,-9.588183E3,-4.610538E3,-1.8127677E3,3.0921611E3,7.2402124E2,6.5884463E3,6.6252466E3,1.0170715E4,8.534889E3,1.4476096E4,-8.903191E2,3.9602493E3,3.5644985E3,7.867503E3,3.9365032E3,8.940382E3,5.1173398E2,7.000474E2,-1.1708265E4,-7.2976416E3,-6.58133E3,-1.849797E3,-6.485962E3,-4.7117184E2,1.797582E3,7.744262E3,-2.9735454E3,1.1505469E3,4.403542E3,7.6902676E3,9.65226E3,4.3647515E3,1.0347662E4,1.5137032E2,6.144405E3,1.0003414E4,1.1283029E4,8.521164E2,-1.682953E2,2.0248935E0,8.227309E1,2.4633704E2,3.0226984E2,1.5526085E2,3.029806E2,4.9948654E2,1.102871E2,3.2531287E2,3.8481097E2,5.35827E2,-6.512094E2,-5.327419E2,-1.7468309E2,-3.7833102E2,-3.8084653E2,-2.0744182E2,-1.5746329E2,3.9570324E1,-3.9156802E2,-2.682669E2,-7.335401E1,1.13869606E2,3.1268087E1,1.654358E2,3.1933377E2,5.8743567E2,-2.1916582E2,-2.9912989E1,-8.337867E0,1.247417E2,2.5645963E2,5.3675423E1,3.5735114E2,5.8334985E2,-3.588965E1,5.330123E2,1.327819E2,6.297406E2,4.9189972E2,7.616964E2,1.989155E2,4.415587E2,2.4584077E2,5.193244E2,4.3217358E2,6.915994E2],"categories":[],"categories_nodes":[],"categories_segments":[],"categories_sizes":[],"default_left":[0,0,0,0,0,0,0,0,0,0,0,0,0,0,0,0,0,0,0,0,0,0,0,0,0,0,0,0,0,0,0,0,0,0,0,0,0,0,0,0,0,0,0,0,0,0,0,0,0,0,0,0,0,0,0,0,0,0,0,0,0,0,0,0,0,0,0,0,0,0,0,0,0,0,0,0,0,0,0,0,0,0,0,0,0,0,0,0,0,0,0,0,0,0,0,0,0,0,0,0,0,0,0,0,0],"id":10,"left_children":[1,3,5,7,9,11,13,15,17,19,21,23,25,27,-1,29,31,33,35,37,39,41,43,45,47,49,51,53,55,57,59,61,63,65,67,-1,-1,69,71,73,75,77,79,81,83,85,87,89,91,93,95,97,-1,99,101,103,-1,-1,-1,-1,-1,-1,-1,-1,-1,-1,-1,-1,-1,-1,-1,-1,-1,-1,-1,-1,-1,-1,-1,-1,-1,-1,-1,-1,-1,-1,-1,-1,-1,-1,-1,-1,-1,-1,-1,-1,-1,-1,-1,-1,-1,-1,-1,-1,-1],"loss_changes":[3.9073026E10,6.4633184E10,5.3249884E9,8.797188E9,2.1215085E10,2.5838008E9,8.727122E8,5.305405E9,1.4002586E9,9.453011E9,3.0152292E9,2.449169E9,2.0562944E8,6.226504E8,0E0,2.9195656E9,1.5714836E9,7.62068E8,2.4973722E8,2.9690675E9,5.3252977E9,1.4326682E9,1.654315E9,1.9740536E8,3.8020352E8,1.6314675E8,1.0392064E8,1.1756979E8,1.0270003E8,7.4212685E8,4.438121E8,1.5669978E8,7.029811E8,1.9023987E8,1.6723354E8,0E0,0E0,3.1175475E8,2.856366E8,1.409321E9,1.4096786E9,3.4873984E7,4.9332096E8,3.8409216E8,2.5114829E8,4.090955E7,1.9697869E8,1.3948006E8,1.607342E8,1.3308621E8,2.3380877E8,1.0912768E8,0E0,9.29024E7,7.387904E6,8.278016E6,0E0,0E0,0E0,0E0,0E0,0E0,0E0,0E0,0E0,0E0,0E0,0E0,0E0,0E0,0E0,0E0,0E0,0E0,0E0,0E0,0E0,0E0,0E0,0E0,0E0,0E0,0E0,0E0,0E0,0E0,0E0,0E0,0E0,0E0,0E0,0E0,0E0,0E0,0E0,0E0,0E0,0E0,0E0,0E0,0E0,0E0,0E0,0E0,0E0],"parents":[2147483647,0,0,1,1,2,2,3,3,4,4,5,5,6,6,7,7,8,8,9,9,10,10,11,11,12,12,13,13,15,15,16,16,17,17,18,18,19,19,20,20,21,21,22,22,23,23,24,24,25,25,26,26,27,27,28,28,29,29,30,30,31,31,32,32,33,33,34,34,37,37,38,38,39,39,40,40,41,41,42,42,43,43,44,44,45,45,46,46,47,47,48,48,49,49,50,50,51,51,53,53,54,54,55,55],"right_children":[2,4,6,8,10,12,14,16,18,20,22,24,26,28,-1,30,32,34,36,38,40,42,44,46,48,50,52,54,56,58,60,62,64,66,68,-1,-1,70,72,74,76,78,80,82,84,86,88,90,92,94,96,98,-1,100,102,104,-1,-1,-1,-1,-1,-1,-1,-1,-1,-1,-1,-1,-1,-1,-1,-1,-1,-1,-1,-1,-1,-1,-1,-1,-1,-1,-1,-1,-1,-1,-1,-1,-1,-1,-1,-1,-1,-1,-1,-1,-1,-1,-1,-1,-1,-1,-1,-1,-1],"split_conditions":[2E0,1E0,1E0,1E0,1E0,5.4E1,5.4E1,3E0,3E0,2E0,4.3E1,2E0,1E0,3E0,8.581713E2,4.9E1,4.1E1,3.4E1,4.6E1,4.5E1,4.8E1,1E0,4E0,2.1E1,3E1,5.9E1,6.9E1,1E0,3.6E1,2.7E1,1E0,1.98E1,4E0,2.48E1,5.3E1,5.1173398E2,7.000474E2,2.9E1,1.84E1,4E0,4E0,2.9E1,4E0,2E0,6.4E1,2.4E1,1E0,2.82E1,2.89E1,1.66E1,2.88E1,6.8E1,1.5137032E2,2.66E1,1.76E1,4E0,8.521164E2,-1.682953E2,2.0248935E0,8.227309E1,2.4633704E2,3.0226984E2,1.5526085E2,3.029806E2,4.9948654E2,1.102871E2,3.2531287E2,3.8481097E2,5.35827E2,-6.512094E2,-5.327419E2,-1.7468309E2,-3.7833102E2,-3.8084653E2,-2.0744182E2,-1.5746329E2,3.9570324E1,-3.9156802E2,-2.682669E2,-7.335401E1,1.13869606E2,3.1268087E1,1.654358E2,3.1933377E2,5.8743567E2,-2.1916582E2,-2.9912989E1,-8.337867E0,1.247417E2,2.5645963E2,5.3675423E1,3.5735114E2,5.8334985E2,-3.588965E1,5.330123E2,1.327819E2,6.297406E2,4.9189972E2,7.616964E2,1.989155E2,4.415587E2,2.4584077E2,5.193244E2,4.3217358E2,6.915994E2],"split_indices":[6,6,4,4,4,0,0,3,3,3,0,3,3,3,0,0,0,0,0,0,0,3,3,0,0,0,0,3,0,0,3,2,3,2,0,0,0,0,2,3,3,0,3,3,0,2,3,2,2,2,2,0,0,2,2,3,0,0,0,0,0,0,0,0,0,0,0,0,0,0,0,0,0,0,0,0,0,0,0,0,0,0,0,0,0,0,0,0,0,0,0,0,0,0,0,0,0,0,0,0,0,0,0,0,0],"split_type":[0,0,0,0,0,0,0,0,0,0,0,0,0,0,0,0,0,0,0,0,0,0,0,0,0,0,0,0,0,0,0,0,0,0,0,0,0,0,0,0,0,0,0,0,0,0,0,0,0,0,0,0,0,0,0,0,0,0,0,0,0,0,0,0,0,0,0,0,0,0,0,0,0,0,0,0,0,0,0,0,0,0,0,0,0,0,0,0,0,0,0,0,0,0,0,0,0,0,0,0,0,0,0,0,0],"sum_hessian":[3.808E3,3.253E3,5.55E2,1.141E3,2.112E3,4.28E2,1.27E2,8.73E2,2.68E2,1.608E3,5.04E2,2.93E2,1.35E2,8.5E1,4.2E1,5.22E2,3.51E2,1.57E2,1.11E2,6.28E2,9.8E2,2.28E2,2.76E2,1.22E2,1.71E2,2.9E1,1.06E2,5E1,3.5E1,3.21E2,2.01E2,1.53E2,1.98E2,4.5E1,1.12E2,5.3E1,5.8E1,3.24E2,3.04E2,5.71E2,4.09E2,5E1,1.78E2,2.17E2,5.9E1,1.2E1,1.1E2,5.9E1,1.12E2,1.1E1,1.8E1,1.03E2,3E0,2.1E1,2.9E1,1.8E1,1.7E1,8.7E1,2.34E2,6E1,1.41E2,2.2E1,1.31E2,1.09E2,8.9E1,2.8E1,1.7E1,6.9E1,4.3E1,1.39E2,1.85E2,2.1E1,2.83E2,3.99E2,1.72E2,2.74E2,1.35E2,2E1,3E1,1.31E2,4.7E1,1.23E2,9.4E1,4.6E1,1.3E1,7E0,5E0,5.6E1,5.4E1,4.8E1,1.1E1,1.01E2,1.1E1,1E0,1E1,1.6E1,2E0,9.6E1,7E0,1.3E1,8E0,3E0,2.6E1,1.1E1,7E0],"tree_param":{"num_deleted":"0","num_feature":"7","num_nodes":"105","size_leaf_vector":"1"}},{"base_weights":[-3.8867992E1,-1.2986318E3,7.1645786E3,4.424384E3,-4.4250815E3,5.349027E3,1.2768674E4,2.8630972E3,9.428287E3,-6.1615254E3,9.4395E2,3.568599E3,7.953494E3,9.896636E3,7.265679E2,8.222852E2,5.8562715E3,4.982856E3,1.08149E4,-9.06054E3,-4.3009014E3,-1.4088812E3,2.719331E3,1.6784492E3,4.482302E3,1.766627E3,8.0511333E3,1.0491888E4,2.811168E2,-1.0972241E3,1.6743134E3,4.8520615E3,7.0216987E3,5.376436E3,1.8490712E3,9.0611045E3,1.2448994E4,-9.848682E3,-8.162282E3,-5.2295684E3,-2.2270889E3,-2.53979E3,3.3265114E1,1.5567504E3,4.6889023E3,4.1453247E3,9.17017E2,4.559996E3,-1.4662682E3,1.2554492E1,1.0940547E2,4.6326877E2,7.4627725E3,4.1285214E2,1.1793311E4,-1.073894E2,-2.6857101E1,3.7962902E1,1.2541577E2,6.481922E1,2.4598692E2,3.6486426E2,1.640264E2,2.127875E2,3.8463394E2,-8.080078E0,1.2233175E2,4.893163E2,2.6508115E2,4.7445264E2,6.5596155E2,-3.6897327E2,-5.0056113E2,-3.5097397E2,-4.625153E2,-3.0767606E2,-2.1706194E2,-1.4470253E2,1.8591595E2,-1.7133565E2,-8.604305E1,1.3112732E2,-8.467384E1,2.9318151E1,1.8798137E2,2.6965598E2,2.8030045E1,4.6026093E1,5.758222E2,1.2444159E2,-3.4088444E1,1.9928036E2,2.9044315E2,-1.1735088E2,7.3807616E0,3.3549176E2,4.7161368E2,1.965166E2,6.123494E2],"categories":[],"categories_nodes":[],"categories_segments":[],"categories_sizes":[],"default_left":[0,0,0,0,0,0,0,0,0,0,0,0,0,0,0,0,0,0,0,0,0,0,0,0,0,0,0,0,0,0,0,0,0,0,0,0,0,0,0,0,0,0,0,0,0,0,0,0,0,0,0,0,0,0,0,0,0,0,0,0,0,0,0,0,0,0,0,0,0,0,0,0,0,0,0,0,0,0,0,0,0,0,0,0,0,0,0,0,0,0,0,0,0,0,0,0,0,0,0],"id":11,"left_children":[1,3,5,7,9,11,13,15,17,19,21,23,25,27,-1,29,31,33,35,37,39,41,43,45,47,49,51,53,-1,55,57,59,61,63,65,67,69,71,73,75,77,79,81,83,85,87,89,91,93,-1,-1,-1,95,-1,97,-1,-1,-1,-1,-1,-1,-1,-1,-1,-1,-1,-1,-1,-1,-1,-1,-1,-1,-1,-1,-1,-1,-1,-1,-1,-1,-1,-1,-1,-1,-1,-1,-1,-1,-1,-1,-1,-1,-1,-1,-1,-1,-1,-1],"loss_changes":[3.4810556E10,5.8439315E10,5.741355E9,8.988664E9,1.9696038E10,1.9794668E9,5.5987405E8,5.3767777E9,1.635072E9,8.569819E9,2.163429E9,4.397788E8,9.149133E7,8.349082E7,0E0,8.6046195E8,3.8373888E8,7.269606E7,4.8329933E8,3.606692E8,1.8641613E9,3.6378323E8,6.6818714E8,1.5773747E8,8.710349E7,2.005677E6,5.3733376E7,4.222925E7,0E0,9.416744E7,2.7588506E8,4.0546304E7,1.4411674E8,1.204128E8,1.1208932E7,2.3166771E8,8.381542E7,5.736448E7,3.0435533E8,5.2484915E8,1.212265E9,8.489395E7,4.470723E8,3.975349E8,3.1386394E8,4.6480698E8,1.7006749E8,1.0023014E8,4.6107365E6,0E0,0E0,0E0,1.161431E8,0E0,5.174861E7,0E0,0E0,0E0,0E0,0E0,0E0,0E0,0E0,0E0,0E0,0E0,0E0,0E0,0E0,0E0,0E0,0E0,0E0,0E0,0E0,0E0,0E0,0E0,0E0,0E0,0E0,0E0,0E0,0E0,0E0,0E0,0E0,0E0,0E0,0E0,0E0,0E0,0E0,0E0,0E0,0E0,0E0,0E0,0E0],"parents":[2147483647,0,0,1,1,2,2,3,3,4,4,5,5,6,6,7,7,8,8,9,9,10,10,11,11,12,12,13,13,15,15,16,16,17,17,18,18,19,19,20,20,21,21,22,22,23,23,24,24,25,25,26,26,27,27,29,29,30,30,31,31,32,32,33,33,34,34,35,35,36,36,37,37,38,38,39,39,40,40,41,41,42,42,43,43,44,44,45,45,46,46,47,47,48,48,52,52,54,54],"right_children":[2,4,6,8,10,12,14,16,18,20,22,24,26,28,-1,30,32,34,36,38,40,42,44,46,48,50,52,54,-1,56,58,60,62,64,66,68,70,72,74,76,78,80,82,84,86,88,90,92,94,-1,-1,-1,96,-1,98,-1,-1,-1,-1,-1,-1,-1,-1,-1,-1,-1,-1,-1,-1,-1,-1,-1,-1,-1,-1,-1,-1,-1,-1,-1,-1,-1,-1,-1,-1,-1,-1,-1,-1,-1,-1,-1,-1,-1,-1,-1,-1,-1,-1],"split_conditions":[2E0,1E0,1E0,1E0,1E0,3E0,2E0,3E0,1E0,2E0,2E0,1E0,1.72E1,2.85E1,7.265679E2,1E0,4E0,2.96E1,3E0,1E0,4E0,2.46E1,4E0,2.11E1,3.41E1,1E0,2.25E1,1E0,2.811168E2,2.22E1,2E0,1.48E1,2.89E1,2.47E1,3.02E1,2.72E1,2.01E1,1.83E1,1E0,3E0,2.88E1,1E0,2.62E1,2.63E1,2.85E1,2.05E1,1E0,2.61E1,1E0,1.2554492E1,1.0940547E2,4.6326877E2,2.88E1,4.1285214E2,1.55E1,-1.073894E2,-2.6857101E1,3.7962902E1,1.2541577E2,6.481922E1,2.4598692E2,3.6486426E2,1.640264E2,2.127875E2,3.8463394E2,-8.080078E0,1.2233175E2,4.893163E2,2.6508115E2,4.7445264E2,6.5596155E2,-3.6897327E2,-5.0056113E2,-3.5097397E2,-4.625153E2,-3.0767606E2,-2.1706194E2,-1.4470253E2,1.8591595E2,-1.7133565E2,-8.604305E1,1.3112732E2,-8.467384E1,2.9318151E1,1.8798137E2,2.6965598E2,2.8030045E1,4.6026093E1,5.758222E2,1.2444159E2,-3.4088444E1,1.9928036E2,2.9044315E2,-1.1735088E2,7.3807616E0,3.3549176E2,4.7161368E2,1.965166E2,6.123494E2],"split_indices":[6,6,4,4,4,3,3,3,3,3,3,3,2,2,0,3,3,2,3,3,3,2,3,2,2,1,2,1,0,2,3,2,2,2,2,2,2,2,1,3,2,3,2,2,2,2,1,2,1,0,0,0,2,0,2,0,0,0,0,0,0,0,0,0,0,0,0,0,0,0,0,0,0,0,0,0,0,0,0,0,0,0,0,0,0,0,0,0,0,0,0,0,0,0,0,0,0,0,0],"split_type":[0,0,0,0,0,0,0,0,0,0,0,0,0,0,0,0,0,0,0,0,0,0,0,0,0,0,0,0,0,0,0,0,0,0,0,0,0,0,0,0,0,0,0,0,0,0,0,0,0,0,0,0,0,0,0,0,0,0,0,0,0,0,0,0,0,0,0,0,0,0,0,0,0,0,0,0,0,0,0,0,0,0,0,0,0,0,0,0,0,0,0,0,0,0,0,0,0,0,0],"sum_hessian":[3.834E3,3.264E3,5.7E2,1.153E3,2.111E3,4.32E2,1.38E2,8.8E2,2.73E2,1.595E3,5.16E2,2.58E2,1.74E2,5.5E1,8.3E1,5.24E2,3.56E2,6.6E1,2.07E2,6.22E2,9.73E2,2.22E2,2.94E2,8.5E1,1.73E2,3E0,1.71E2,4.7E1,8E0,1.61E2,3.63E2,1.94E2,1.62E2,5.8E1,8E0,1.03E2,1.04E2,3.26E2,2.96E2,6.71E2,3.02E2,1.24E2,9.8E1,1.86E2,1.08E2,1.9E1,6.6E1,1.71E2,2E0,1E0,2E0,5.1E1,1.2E2,2E1,2.7E1,5.5E1,1.06E2,1.74E2,1.89E2,4E0,1.9E2,1.5E2,1.2E1,4.1E1,1.7E1,2E0,6E0,8.5E1,1.8E1,2.2E1,8.2E1,2.3E1,3.03E2,1.48E2,1.48E2,3.26E2,3.45E2,2.72E2,3E1,5.8E1,6.6E1,3.9E1,5.9E1,1.3E2,5.6E1,9.2E1,1.6E1,1.4E1,5E0,3.3E1,3.3E1,1.2E2,5.1E1,1E0,1E0,9E1,3E1,2E0,2.5E1],"tree_param":{"num_deleted":"0","num_feature":"7","num_nodes":"99","size_leaf_vector":"1"}},{"base_weights":[7.991375E1,-1.1666893E3,7.066751E3,4.21726E3,-4.100287E3,5.041428E3,1.063046E4,2.737724E3,8.875659E3,-5.7283296E3,8.5705054E2,3.7667922E3,9.188313E3,8.926139E3,1.5271253E4,8.805904E2,5.507688E3,6.7137056E3,1.2000737E4,-7.3614067E3,-2.5303235E3,-1.584566E3,3.222013E3,7.4148364E2,5.8747505E3,7.6821797E3,1.1661259E4,7.8360093E3,1.0410996E4,1.029278E4,1.6567143E4,-1.8085154E3,2.5276475E3,3.2913967E3,7.0335557E3,3.0238015E3,7.8998037E3,4.8608014E2,6.9416614E2,-9.139651E3,-4.5769014E3,-4.361553E3,-2.8174084E2,-3.6318428E3,1.0746107E3,1.956371E3,8.154601E3,-4.539525E2,2.4002646E3,4.6655815E3,7.737643E3,6.311634E3,4.2778403E2,4.7102325E2,7.019622E2,5.775436E3,1.0358813E4,9.581953E3,6.431274E2,1.16444336E2,5.3631213E2,3.8511954E2,8.5257745E2,-1.89998E2,-2.2460972E1,9.1819374E1,2.637535E2,3.0240158E2,1.5099857E2,2.4269653E2,4.8526633E2,2.4820512E2,8.194216E1,2.8277933E2,4.6361588E2,-5.125797E2,-3.7025552E2,-2.7619785E2,-1.5097295E2,-3.2301633E2,-1.6069778E2,-8.008991E1,4.8860386E1,-2.7005515E2,-1.2021816E2,-7.2735023E0,1.4607605E2,4.3287617E1,1.6639189E2,2.9823407E2,6.4914343E2,-1.1413897E2,1.6161692E1,3.5382195E1,1.9079588E2,5.700815E2,2.1778409E2,4.031239E2,2.572402E2,1.8863945E2,3.615205E2,2.4094543E2,4.7511328E2,2.7269308E2,5.4442804E2,4.9177008E2,2.641575E2],"categories":[],"categories_nodes":[],"categories_segments":[],"categories_sizes":[],"default_left":[0,0,0,0,0,0,0,0,0,0,0,0,0,0,0,0,0,0,0,0,0,0,0,0,0,0,0,0,0,0,0,0,0,0,0,0,0,0,0,0,0,0,0,0,0,0,0,0,0,0,0,0,0,0,0,0,0,0,0,0,0,0,0,0,0,0,0,0,0,0,0,0,0,0,0,0,0,0,0,0,0,0,0,0,0,0,0,0,0,0,0,0,0,0,0,0,0,0,0,0,0,0,0,0,0,0,0],"id":12,"left_children":[1,3,5,7,9,11,13,15,17,19,21,23,25,27,29,31,33,35,37,39,41,43,45,47,49,51,53,55,57,59,61,63,65,67,69,71,73,-1,-1,75,77,79,81,83,85,87,89,91,93,95,97,99,-1,-1,-1,101,103,105,-1,-1,-1,-1,-1,-1,-1,-1,-1,-1,-1,-1,-1,-1,-1,-1,-1,-1,-1,-1,-1,-1,-1,-1,-1,-1,-1,-1,-1,-1,-1,-1,-1,-1,-1,-1,-1,-1,-1,-1,-1,-1,-1,-1,-1,-1,-1,-1,-1],"loss_changes":[3.3480059E10,5.1538436E10,4.1470853E9,7.908704E9,1.705035E10,1.936982E9,1.5246602E9,4.496319E9,1.7909187E9,8.2852905E9,3.025081E9,1.8259075E9,2.3445504E8,1.7093427E8,1.8431283E8,2.3298542E9,1.1638497E9,7.026263E8,3.4558566E8,5.167182E9,2.2181957E9,1.4084732E9,1.6446556E9,2.3706264E8,3.445806E8,1.4238208E7,3.2929536E7,4.288251E8,4.795904E6,2.3348608E7,4.901581E7,5.3968557E8,6.094464E8,9.02272E7,1.1583468E9,1.0472854E8,3.3258752E8,0E0,0E0,1.1603886E9,5.910139E8,6.945751E8,4.0540314E8,3.0408627E8,2.5505693E8,3.157131E8,4.9353114E8,1.00231624E8,1.1710787E8,1.695255E8,1.326592E7,3.3369472E7,0E0,0E0,0E0,1.4670938E8,4.7149056E7,3.603968E6,0E0,0E0,0E0,0E0,0E0,0E0,0E0,0E0,0E0,0E0,0E0,0E0,0E0,0E0,0E0,0E0,0E0,0E0,0E0,0E0,0E0,0E0,0E0,0E0,0E0,0E0,0E0,0E0,0E0,0E0,0E0,0E0,0E0,0E0,0E0,0E0,0E0,0E0,0E0,0E0,0E0,0E0,0E0,0E0,0E0,0E0,0E0,0E0,0E0],"parents":[2147483647,0,0,1,1,2,2,3,3,4,4,5,5,6,6,7,7,8,8,9,9,10,10,11,11,12,12,13,13,14,14,15,15,16,16,17,17,18,18,19,19,20,20,21,21,22,22,23,23,24,24,25,25,26,26,27,27,28,28,29,29,30,30,31,31,32,32,33,33,34,34,35,35,36,36,39,39,40,40,41,41,42,42,43,43,44,44,45,45,46,46,47,47,48,48,49,49,50,50,51,51,55,55,56,56,57,57],"right_children":[2,4,6,8,10,12,14,16,18,20,22,24,26,28,30,32,34,36,38,40,42,44,46,48,50,52,54,56,58,60,62,64,66,68,70,72,74,-1,-1,76,78,80,82,84,86,88,90,92,94,96,98,100,-1,-1,-1,102,104,106,-1,-1,-1,-1,-1,-1,-1,-1,-1,-1,-1,-1,-1,-1,-1,-1,-1,-1,-1,-1,-1,-1,-1,-1,-1,-1,-1,-1,-1,-1,-1,-1,-1,-1,-1,-1,-1,-1,-1,-1,-1,-1,-1,-1,-1,-1,-1,-1,-1],"split_conditions":[2E0,1E0,5.2E1,1E0,1E0,1E0,1E0,3E0,3E0,5.2E1,4.5E1,2E0,3E0,1E0,1E0,3.8E1,4.1E1,3.2E1,4.6E1,3E0,3E0,3E0,4E0,3.6E1,4E1,1E0,3.6E1,3E0,6.5E1,5.3E1,5.4E1,2.7E1,6.4E1,2E1,4E0,1E0,1E0,4.8608014E2,6.9416614E2,3.9E1,3.9E1,1E0,4E0,1E0,3.1E1,2E0,6.3E1,2.3E1,1E0,1.9E1,5E1,1E0,4.2778403E2,4.7102325E2,7.019622E2,6.8E1,5.6E1,6.4E1,6.431274E2,1.16444336E2,5.3631213E2,3.8511954E2,8.5257745E2,-1.89998E2,-2.2460972E1,9.1819374E1,2.637535E2,3.0240158E2,1.5099857E2,2.4269653E2,4.8526633E2,2.4820512E2,8.194216E1,2.8277933E2,4.6361588E2,-5.125797E2,-3.7025552E2,-2.7619785E2,-1.5097295E2,-3.2301633E2,-1.6069778E2,-8.008991E1,4.8860386E1,-2.7005515E2,-1.2021816E2,-7.2735023E0,1.4607605E2,4.3287617E1,1.6639189E2,2.9823407E2,6.4914343E2,-1.1413897E2,1.6161692E1,3.5382195E1,1.9079588E2,5.700815E2,2.1778409E2,4.031239E2,2.572402E2,1.8863945E2,3.615205E2,2.4094543E2,4.7511328E2,2.7269308E2,5.4442804E2,4.9177008E2,2.641575E2],"split_indices":[6,6,0,4,4,4,4,3,3,0,0,3,3,1,3,0,0,0,0,3,3,3,3,0,0,3,0,3,0,0,0,0,0,0,3,1,3,0,0,0,0,3,3,3,0,3,0,0,3,0,0,1,0,0,0,0,0,0,0,0,0,0,0,0,0,0,0,0,0,0,0,0,0,0,0,0,0,0,0,0,0,0,0,0,0,0,0,0,0,0,0,0,0,0,0,0,0,0,0,0,0,0,0,0,0,0,0],"split_type":[0,0,0,0,0,0,0,0,0,0,0,0,0,0,0,0,0,0,0,0,0,0,0,0,0,0,0,0,0,0,0,0,0,0,0,0,0,0,0,0,0,0,0,0,0,0,0,0,0,0,0,0,0,0,0,0,0,0,0,0,0,0,0,0,0,0,0,0,0,0,0,0,0,0,0,0,0,0,0,0,0,0,0,0,0,0,0,0,0,0,0,0,0,0,0,0,0,0,0,0,0,0,0,0,0,0,0],"sum_hessian":[3.842E3,3.261E3,5.81E2,1.15E3,2.111E3,3.72E2,2.09E2,8.74E2,2.76E2,1.589E3,5.22E2,2.86E2,8.6E1,1.55E2,5.4E1,5.24E2,3.5E2,1.65E2,1.11E2,1.051E3,5.38E2,2.57E2,2.65E2,1.18E2,1.68E2,5.6E1,3E1,9.3E1,6.2E1,1.3E1,4.1E1,1.99E2,3.25E2,1.44E2,2.06E2,4.1E1,1.24E2,5.3E1,5.8E1,6.4E2,4.11E2,2.96E2,2.42E2,1.45E2,1.12E2,2.12E2,5.3E1,6.9E1,4.9E1,1.04E2,6.4E1,2.5E1,3.1E1,1.8E1,1.2E1,5.3E1,4E1,5E1,1.2E1,1E0,1.2E1,3E0,3.8E1,8E1,1.19E2,2.61E2,6.4E1,1.1E1,1.33E2,1.15E2,9.1E1,1.6E1,2.5E1,4.9E1,7.5E1,3.87E2,2.53E2,2.54E2,1.57E2,1.03E2,1.93E2,1.18E2,1.24E2,5.8E1,8.7E1,6.8E1,4.4E1,1.19E2,9.3E1,3.8E1,1.5E1,2E1,4.9E1,2.3E1,2.6E1,3E0,1.01E2,5.5E1,9E0,8E0,1.7E1,4.4E1,9E0,5E0,3.5E1,4.6E1,4E0],"tree_param":{"num_deleted":"0","num_feature":"7","num_nodes":"107","size_leaf_vector":"1"}},{"base_weights":[2.8775059E-2,-1.1734086E3,6.7421465E3,4.0005627E3,-3.9157178E3,4.8761562E3,9.941891E3,2.253053E3,6.5977256E3,-5.6675557E3,-1.4984629E3,2.123038E3,6.998066E3,7.135224E3,1.0625935E4,-8.8351447E2,3.4799812E3,4.3166484E3,8.561954E3,-7.8672563E3,-3.386576E3,-3.1345437E3,5.864722E2,-3.0340464E3,2.4526902E3,4.968156E3,8.1397334E3,9.901778E3,5.5141064E3,1.5116016E2,1.0752754E4,-2.609087E3,6.2265064E1,2.7142344E3,5.2259634E3,6.2811445E3,3.9084136E3,6.970275E3,9.926859E3,-8.913487E3,-6.3201333E3,-4.815143E3,-2.403963E3,-4.3796294E3,-1.8266139E3,-7.6965234E2,1.9952251E3,-4.020998E3,3.0458658E1,5.53669E3,2.1688005E3,3.1156455E3,5.869148E3,6.252097E3,8.948153E3,1.3355717E3,1.111692E4,7.691771E3,3.848523E3,-1.8409473E1,2.9746485E1,1.0302873E4,6.9147034E2,-2.1885448E2,-8.629995E1,-4.3510067E1,1.4589075E2,9.862417E1,2.0527942E2,3.8335287E2,2.3337361E2,3.117604E1,3.302568E2,1.4594467E2,2.4492493E2,3.7378586E2,7.329967E1,4.273353E2,5.519625E2,-2.848482E2,-4.725101E2,-3.995844E2,-2.775697E2,-3.1877872E2,-2.0442914E2,-1.6145445E2,-3.9045166E1,-1.9686449E2,-3.1663226E2,-1.414019E2,6.791575E1,4.727622E1,-1.0720449E2,-3.6954205E1,1.5510674E2,-1.1267188E1,-2.2655212E2,1.2405593E2,4.659133E2,-1.3486919E2,1.283467E2,2.8355243E2,5.0218273E1,3.491764E2,8.7915886E1,2.4679247E2,4.5656982E2,4.5224918E2,1.3098047E1,1.135332E2,-1.3365333E1,3.3024493E2,6.555661E2,1.932072E2,6.1388104E2,8.524274E1,3.0204742E2,3.6416095E2,5.3080444E2],"categories":[],"categories_nodes":[],"categories_segments":[],"categories_sizes":[],"default_left":[0,0,0,0,0,0,0,0,0,0,0,0,0,0,0,0,0,0,0,0,0,0,0,0,0,0,0,0,0,0,0,0,0,0,0,0,0,0,0,0,0,0,0,0,0,0,0,0,0,0,0,0,0,0,0,0,0,0,0,0,0,0,0,0,0,0,0,0,0,0,0,0,0,0,0,0,0,0,0,0,0,0,0,0,0,0,0,0,0,0,0,0,0,0,0,0,0,0,0,0,0,0,0,0,0,0,0,0,0,0,0,0,0,0,0,0,0,0,0],"id":13,"left_children":[1,3,5,7,9,11,13,15,17,19,21,23,25,27,29,31,33,35,37,39,41,43,45,47,49,51,53,55,57,59,61,63,65,67,69,71,73,75,77,79,81,83,85,87,89,91,93,95,-1,97,99,101,103,105,107,109,111,113,115,-1,-1,117,-1,-1,-1,-1,-1,-1,-1,-1,-1,-1,-1,-1,-1,-1,-1,-1,-1,-1,-1,-1,-1,-1,-1,-1,-1,-1,-1,-1,-1,-1,-1,-1,-1,-1,-1,-1,-1,-1,-1,-1,-1,-1,-1,-1,-1,-1,-1,-1,-1,-1,-1,-1,-1,-1,-1,-1,-1],"loss_changes":[3.0419536E10,4.6483427E10,3.3548145E9,5.1364106E9,9.05787E9,2.0998994E9,3.254354E8,2.619948E9,2.0061737E9,6.2000374E9,3.0752594E9,2.7774854E8,4.3232768E8,1.4273664E8,2.1889024E8,3.1350858E8,6.395986E8,1.4627149E8,4.608942E8,9.65034E8,8.4610304E8,8.1438464E8,7.599821E8,3.840629E7,1.1931942E8,1.0856525E8,1.4090957E8,1.4128998E8,7.921056E7,9.1046144E5,8.451482E7,9.861363E7,3.3537715E8,3.4485888E8,1.6598682E8,6.0037376E7,1.6106957E8,3.1176346E8,1.037015E8,5.918208E8,2.8716134E8,2.5510195E8,4.8495782E8,1.97952E8,7.948282E8,4.805801E8,5.92486E8,1.4466568E7,0E0,1.1553875E8,2.7622138E8,1.3997382E8,2.167721E8,1.1410342E8,7.164621E7,5.1034825E6,3.0385152E7,1.6319251E8,7.899789E7,0E0,0E0,6.171341E7,0E0,0E0,0E0,0E0,0E0,0E0,0E0,0E0,0E0,0E0,0E0,0E0,0E0,0E0,0E0,0E0,0E0,0E0,0E0,0E0,0E0,0E0,0E0,0E0,0E0,0E0,0E0,0E0,0E0,0E0,0E0,0E0,0E0,0E0,0E0,0E0,0E0,0E0,0E0,0E0,0E0,0E0,0E0,0E0,0E0,0E0,0E0,0E0,0E0,0E0,0E0,0E0,0E0,0E0,0E0,0E0,0E0],"parents":[2147483647,0,0,1,1,2,2,3,3,4,4,5,5,6,6,7,7,8,8,9,9,10,10,11,11,12,12,13,13,14,14,15,15,16,16,17,17,18,18,19,19,20,20,21,21,22,22,23,23,24,24,25,25,26,26,27,27,28,28,29,29,30,30,31,31,32,32,33,33,34,34,35,35,36,36,37,37,38,38,39,39,40,40,41,41,42,42,43,43,44,44,45,45,46,46,47,47,49,49,50,50,51,51,52,52,53,53,54,54,55,55,56,56,57,57,58,58,61,61],"right_children":[2,4,6,8,10,12,14,16,18,20,22,24,26,28,30,32,34,36,38,40,42,44,46,48,50,52,54,56,58,60,62,64,66,68,70,72,74,76,78,80,82,84,86,88,90,92,94,96,-1,98,100,102,104,106,108,110,112,114,116,-1,-1,118,-1,-1,-1,-1,-1,-1,-1,-1,-1,-1,-1,-1,-1,-1,-1,-1,-1,-1,-1,-1,-1,-1,-1,-1,-1,-1,-1,-1,-1,-1,-1,-1,-1,-1,-1,-1,-1,-1,-1,-1,-1,-1,-1,-1,-1,-1,-1,-1,-1,-1,-1,-1,-1,-1,-1,-1,-1],"split_conditions":[2E0,1E0,5.2E1,3E0,3E0,2E0,1E0,3.4E1,4.3E1,4.5E1,4.7E1,2E1,3E1,5.8E1,1.22E1,1E0,5.8E1,1.97E1,5.6E1,3.4E1,5.4E1,4E0,4E0,2.4E1,1.81E1,2.36E1,3E0,1.99E1,2.28E1,5.3E1,6.8E1,2.2E1,2.67E1,2E0,2.01E1,1.48E1,3.2E1,2.79E1,4E0,1.91E1,1E0,1E0,2E0,2.76E1,4E1,1E0,5.4E1,1.9E1,3.0458658E1,1.61E1,1.94E1,1.98E1,2.7E1,4.7E1,3.23E1,5.3E1,1E0,2.07E1,6.5E1,-1.8409473E1,2.9746485E1,1.89E1,6.9147034E2,-2.1885448E2,-8.629995E1,-4.3510067E1,1.4589075E2,9.862417E1,2.0527942E2,3.8335287E2,2.3337361E2,3.117604E1,3.302568E2,1.4594467E2,2.4492493E2,3.7378586E2,7.329967E1,4.273353E2,5.519625E2,-2.848482E2,-4.725101E2,-3.995844E2,-2.775697E2,-3.1877872E2,-2.0442914E2,-1.6145445E2,-3.9045166E1,-1.9686449E2,-3.1663226E2,-1.414019E2,6.791575E1,4.727622E1,-1.0720449E2,-3.6954205E1,1.5510674E2,-1.1267188E1,-2.2655212E2,1.2405593E2,4.659133E2,-1.3486919E2,1.283467E2,2.8355243E2,5.0218273E1,3.491764E2,8.7915886E1,2.4679247E2,4.5656982E2,4.5224918E2,1.3098047E1,1.135332E2,-1.3365333E1,3.3024493E2,6.555661E2,1.932072E2,6.1388104E2,8.524274E1,3.0204742E2,3.6416095E2,5.3080444E2],"split_indices":[6,6,0,3,3,3,3,0,0,0,0,0,0,0,2,3,0,2,0,0,0,3,3,2,2,2,3,2,2,0,0,2,2,3,2,2,0,2,3,2,3,3,3,2,0,1,0,0,0,2,2,2,0,0,2,0,1,2,0,0,0,2,0,0,0,0,0,0,0,0,0,0,0,0,0,0,0,0,0,0,0,0,0,0,0,0,0,0,0,0,0,0,0,0,0,0,0,0,0,0,0,0,0,0,0,0,0,0,0,0,0,0,0,0,0,0,0,0,0],"split_type":[0,0,0,0,0,0,0,0,0,0,0,0,0,0,0,0,0,0,0,0,0,0,0,0,0,0,0,0,0,0,0,0,0,0,0,0,0,0,0,0,0,0,0,0,0,0,0,0,0,0,0,0,0,0,0,0,0,0,0,0,0,0,0,0,0,0,0,0,0,0,0,0,0,0,0,0,0,0,0,0,0,0,0,0,0,0,0,0,0,0,0,0,0,0,0,0,0,0,0,0,0,0,0,0,0,0,0,0,0,0,0,0,0,0,0,0,0,0,0],"sum_hessian":[3.843E3,3.274E3,5.69E2,1.134E3,2.14E3,3.61E2,2.08E2,6.79E2,4.55E2,1.24E3,9E2,1.58E2,2.03E2,4.3E1,1.65E2,1.91E2,4.88E2,2.12E2,2.43E2,6.3E2,6.1E2,5.04E2,3.96E2,9E0,1.49E2,7.5E1,1.28E2,1.4E1,2.9E1,2E0,1.63E2,6.7E1,1.24E2,3.41E2,1.47E2,3.4E1,1.78E2,1.15E2,1.28E2,3.73E2,2.57E2,2.47E2,3.63E2,2.57E2,2.47E2,2.02E2,1.94E2,7E0,2E0,1.1E1,1.38E2,2.6E1,4.9E1,4.1E1,8.7E1,2E0,1.2E1,1.1E1,1.8E1,1E0,1E0,1.46E2,1.7E1,2.1E1,4.6E1,9.4E1,3E1,2.24E2,1.17E2,2.5E1,1.22E2,2E0,3.2E1,9.1E1,8.7E1,1.05E2,1E1,6.1E1,6.7E1,5.5E1,3.18E2,7.8E1,1.79E2,7.6E1,1.71E2,2.4E2,1.23E2,2.12E2,4.5E1,1.88E2,5.9E1,9E1,1.12E2,5.6E1,1.38E2,1E0,6E0,7E0,4E0,1E1,1.28E2,1.1E1,1.5E1,3.8E1,1.1E1,3E1,1.1E1,8.6E1,1E0,1E0,1E0,5E0,7E0,7E0,4E0,1E1,8E0,1.6E1,1.3E2],"tree_param":{"num_deleted":"0","num_feature":"7","num_nodes":"119","size_leaf_vector":"1"}},{"base_weights":[2.0959797E1,-1.5128724E3,4.778748E3,2.4238152E3,-3.2634932E3,3.6740913E3,1.118795E4,7.032769E2,4.9206646E3,-5.363821E3,4.669968E3,8.478743E3,1.0672263E3,9.160055E3,1.4467693E4,-9.4674115E2,3.1368533E3,3.4768572E3,7.863528E3,-7.8602827E3,-3.730046E3,2.0231826E3,6.522033E3,4.0679377E3,9.909205E3,-5.1978644E2,4.28095E3,8.172962E3,6.2723486E2,8.773921E2,1.2696857E4,-2.7683022E3,3.0457294E2,1.8395089E3,5.363393E3,2.4713328E3,4.656277E3,1.2726322E3,8.139022E3,-9.933467E3,-6.2041284E3,-6.501173E3,-2.2622388E3,-6.446864E2,4.411116E3,3.1213435E3,7.3395957E3,9.304893E1,5.4161445E3,8.0557104E3,1.1539842E4,-2.6899968E3,2.148192E3,2.1662E3,5.731745E3,1.0889883E2,4.1137457E2,3.9502798E2,1.400301E4,-2.1206218E2,-1.0452173E2,-8.846694E1,5.9224316E1,6.1659595E1,1.865665E2,1.9862807E2,3.54368E2,4.0438916E2,1.09761284E2,1.4190143E2,4.0167587E2,1.5933803E2,-2.4056105E1,4.7713736E2,3.456211E2,-5.4771155E2,-4.3735812E2,-3.6857205E2,-2.4413416E2,-3.8523062E2,-2.9513043E2,-1.6824829E2,5.9093122E0,-9.8507385E1,1.9522718E1,-5.5228596E1,2.3357117E2,2.5042349E1,2.5812088E2,2.98546E2,4.4407007E2,-8.0683235E1,5.024455E1,1.9291486E2,3.8031393E2,5.892063E2,3.8726193E2,4.166329E2,6.260695E2,-2.373424E2,-8.204394E1,6.26013E1,1.949996E2,-3.494728E1,1.4046748E2,1.9631706E2,3.9656693E2,7.169035E2,1.3228613E2],"categories":[],"categories_nodes":[],"categories_segments":[],"categories_sizes":[],"default_left":[0,0,0,0,0,0,0,0,0,0,0,0,0,0,0,0,0,0,0,0,0,0,0,0,0,0,0,0,0,0,0,0,0,0,0,0,0,0,0,0,0,0,0,0,0,0,0,0,0,0,0,0,0,0,0,0,0,0,0,0,0,0,0,0,0,0,0,0,0,0,0,0,0,0,0,0,0,0,0,0,0,0,0,0,0,0,0,0,0,0,0,0,0,0,0,0,0,0,0,0,0,0,0,0,0,0,0,0,0],"id":14,"left_children":[1,3,5,7,9,11,13,15,17,19,21,23,25,27,29,31,33,35,37,39,41,43,45,47,49,51,53,55,-1,-1,57,59,61,63,65,67,69,71,73,75,77,79,81,83,85,87,89,91,93,95,97,99,101,103,105,-1,-1,-1,107,-1,-1,-1,-1,-1,-1,-1,-1,-1,-1,-1,-1,-1,-1,-1,-1,-1,-1,-1,-1,-1,-1,-1,-1,-1,-1,-1,-1,-1,-1,-1,-1,-1,-1,-1,-1,-1,-1,-1,-1,-1,-1,-1,-1,-1,-1,-1,-1,-1,-1],"loss_changes":[2.8198048E10,2.0145306E10,6.628225E9,3.8628716E9,3.3734027E10,1.0073641E10,7.853097E8,2.1472173E9,1.5320156E9,6.4965304E9,2.0652605E9,1.7452749E9,2.669641E9,1.9147622E8,5.537485E7,7.2795424E8,6.140694E8,2.826048E8,2.0753306E8,2.1083546E9,3.9266806E9,1.124086E9,6.693796E8,3.7998298E8,5.508055E8,2.0380947E9,5.1835955E8,5.291008E6,0E0,0E0,1.1489741E8,1.209337E8,3.4881968E8,1.536905E8,1.612672E8,1.9314637E8,6.710953E8,2.1674684E7,1.3204429E8,2.4203264E8,5.1006566E8,1.958359E8,1.6672468E9,1.1602053E8,1.3868672E8,2.648458E8,3.690158E8,3.1190364E7,1.5148314E8,2.7958784E7,2.4509133E8,4.108398E8,2.4316186E8,1.346393E8,3.7391667E8,0E0,0E0,0E0,6.4809984E7,0E0,0E0,0E0,0E0,0E0,0E0,0E0,0E0,0E0,0E0,0E0,0E0,0E0,0E0,0E0,0E0,0E0,0E0,0E0,0E0,0E0,0E0,0E0,0E0,0E0,0E0,0E0,0E0,0E0,0E0,0E0,0E0,0E0,0E0,0E0,0E0,0E0,0E0,0E0,0E0,0E0,0E0,0E0,0E0,0E0,0E0,0E0,0E0,0E0,0E0],"parents":[2147483647,0,0,1,1,2,2,3,3,4,4,5,5,6,6,7,7,8,8,9,9,10,10,11,11,12,12,13,13,14,14,15,15,16,16,17,17,18,18,19,19,20,20,21,21,22,22,23,23,24,24,25,25,26,26,27,27,30,30,31,31,32,32,33,33,34,34,35,35,36,36,37,37,38,38,39,39,40,40,41,41,42,42,43,43,44,44,45,45,46,46,47,47,48,48,49,49,50,50,51,51,52,52,53,53,54,54,58,58],"right_children":[2,4,6,8,10,12,14,16,18,20,22,24,26,28,30,32,34,36,38,40,42,44,46,48,50,52,54,56,-1,-1,58,60,62,64,66,68,70,72,74,76,78,80,82,84,86,88,90,92,94,96,98,100,102,104,106,-1,-1,-1,108,-1,-1,-1,-1,-1,-1,-1,-1,-1,-1,-1,-1,-1,-1,-1,-1,-1,-1,-1,-1,-1,-1,-1,-1,-1,-1,-1,-1,-1,-1,-1,-1,-1,-1,-1,-1,-1,-1,-1,-1,-1,-1,-1,-1,-1,-1,-1,-1,-1,-1],"split_conditions":[1E0,1E0,2E0,3E0,2E0,1E0,5.4E1,4.9E1,5.3E1,2E0,3.9E1,1E0,5.3E1,4E0,5.7E1,3.2E1,2E0,4E0,1.66E1,4E1,3.7E1,2E0,1E0,3.2E1,4.5E1,3E0,2E0,2E1,6.2723486E2,8.773921E2,6.1E1,2.2E1,2.16E1,6.5E1,6.2E1,1.9E1,4.2E1,4E0,2.39E1,2.9E1,5.4E1,3E0,4E0,1E0,1.78E1,5.2E1,5.6E1,2.3E1,2.47E1,1.62E1,2E0,3E1,3.8E1,1.96E1,6.2E1,1.0889883E2,4.1137457E2,3.9502798E2,2.79E1,-2.1206218E2,-1.0452173E2,-8.846694E1,5.9224316E1,6.1659595E1,1.865665E2,1.9862807E2,3.54368E2,4.0438916E2,1.09761284E2,1.4190143E2,4.0167587E2,1.5933803E2,-2.4056105E1,4.7713736E2,3.456211E2,-5.4771155E2,-4.3735812E2,-3.6857205E2,-2.4413416E2,-3.8523062E2,-2.9513043E2,-1.6824829E2,5.9093122E0,-9.8507385E1,1.9522718E1,-5.5228596E1,2.3357117E2,2.5042349E1,2.5812088E2,2.98546E2,4.4407007E2,-8.0683235E1,5.024455E1,1.9291486E2,3.8031393E2,5.892063E2,3.8726193E2,4.166329E2,6.260695E2,-2.373424E2,-8.204394E1,6.26013E1,1.949996E2,-3.494728E1,1.4046748E2,1.9631706E2,3.9656693E2,7.169035E2,1.3228613E2],"split_indices":[4,6,6,3,6,6,0,0,0,3,0,3,0,3,0,0,3,3,2,0,0,3,3,0,0,3,3,0,0,0,0,2,2,0,0,0,0,3,2,0,0,3,3,3,2,0,0,0,2,2,3,0,0,2,0,0,0,0,2,0,0,0,0,0,0,0,0,0,0,0,0,0,0,0,0,0,0,0,0,0,0,0,0,0,0,0,0,0,0,0,0,0,0,0,0,0,0,0,0,0,0,0,0,0,0,0,0,0,0],"split_type":[0,0,0,0,0,0,0,0,0,0,0,0,0,0,0,0,0,0,0,0,0,0,0,0,0,0,0,0,0,0,0,0,0,0,0,0,0,0,0,0,0,0,0,0,0,0,0,0,0,0,0,0,0,0,0,0,0,0,0,0,0,0,0,0,0,0,0,0,0,0,0,0,0,0,0,0,0,0,0,0,0,0,0,0,0,0,0,0,0,0,0,0,0,0,0,0,0,0,0,0,0,0,0,0,0,0,0,0,0],"sum_hessian":[3.862E3,2.921E3,9.41E2,8.99E2,2.022E3,8.04E2,1.37E2,5.33E2,3.66E2,1.599E3,4.23E2,2.82E2,5.22E2,8.7E1,5E1,3.18E2,2.15E2,2.47E2,1.19E2,6.31E2,9.68E2,1.75E2,2.48E2,7E1,2.12E2,3.5E2,1.72E2,7E1,1.7E1,1.5E1,3.5E1,1.29E2,1.89E2,1.37E2,7.8E1,1.35E2,1.12E2,5E0,1.14E2,2.78E2,3.53E2,3.34E2,6.34E2,8.3E1,9.2E1,4.9E1,1.99E2,1.8E1,5.2E1,1.02E2,1.1E2,1.93E2,1.57E2,7.1E1,1.01E2,1E0,6.9E1,9E0,2.6E1,3.9E1,9E1,5.6E1,1.33E2,1.05E2,3.2E1,4.5E1,3.3E1,5E0,1.3E2,7.4E1,3.8E1,2E0,3E0,5E1,6.4E1,1.45E2,1.33E2,1.85E2,1.68E2,1.07E2,2.27E2,4.33E2,2.01E2,3.6E1,4.7E1,4E0,8.8E1,2.2E1,2.7E1,1.08E2,9.1E1,6E0,1.2E1,3.2E1,2E1,5E0,9.7E1,2.8E1,8.2E1,6.4E1,1.29E2,1.05E2,5.2E1,1.3E1,5.8E1,5.7E1,4.4E1,2.5E1,1E0],"tree_param":{"num_deleted":"0","num_feature":"7","num_nodes":"109","size_leaf_vector":"1"}},{"base_weights":[-8.076545E0,4.5805938E3,-5.3533433E3,3.1093552E3,1.5182189E4,-6.9555654E3,-8.570526E2,1.6539724E3,7.938265E3,1.3916718E4,9.417892E2,-8.973045E3,-5.67059E3,-2.3176484E3,1.4509037E3,-5.221285E2,3.6149465E3,4.0104377E3,9.117573E3,1.0305309E4,1.4805136E4,-1.0443402E4,-7.795202E3,-6.9359434E3,-3.9092727E3,-4.1116494E3,-8.881096E2,2.6117688E2,5.6679043E3,-2.8220952E3,1.0318091E3,1.3108765E4,-1.00526526E3,1.7417955E3,6.924442E3,1.1743965E4,5.0767676E3,1.0806512E4,4.5353438E3,1.1144254E4,7.704603E2,-5.7520917E2,-9.249108E3,-8.8330625E3,-6.60196E3,-7.4975625E3,-5.503399E3,-4.7029385E3,-2.7532102E3,-4.5725513E3,-2.1453545E3,-2.830359E3,2.3306337E2,-6.451098E2,1.5624174E3,4.0723184E3,3.9033817E2,-2.44646E2,-7.600927E1,-3.090591E0,2.0173454E2,5.957251E2,8.3774524E2,-2.1521672E2,8.914786E0,-1.0082539E2,1.244244E2,1.3619005E2,4.4292065E2,3.646755E2,9.3837225E2,1.06311E2,3.1427496E2,2.2433763E2,5.519724E2,3.9826077E1,2.6354596E2,2.4014644E2,5.8953326E2,-4.6561435E2,-5.9067776E1,-4.7502505E2,-3.268949E2,-3.4282883E2,-1.3413408E2,-4.3262393E2,-3.173049E2,-2.8976556E2,-1.708092E2,-2.4643082E2,-6.843632E1,-1.7969807E2,-6.306429E1,-2.5013707E2,-1.3375107E2,3.599909E1,-2.1472998E2,-4.5328907E1,-1.5155202E2,2.1877583E1,-1.1249644E2,-5.6696453E1,6.186902E1,-1.3049357E1,1.36731E2,2.4458984E2,8.597261E1],"categories":[],"categories_nodes":[],"categories_segments":[],"categories_sizes":[],"default_left":[0,0,0,0,0,0,0,0,0,0,0,0,0,0,0,0,0,0,0,0,0,0,0,0,0,0,0,0,0,0,0,0,0,0,0,0,0,0,0,0,0,0,0,0,0,0,0,0,0,0,0,0,0,0,0,0,0,0,0,0,0,0,0,0,0,0,0,0,0,0,0,0,0,0,0,0,0,0,0,0,0,0,0,0,0,0,0,0,0,0,0,0,0,0,0,0,0,0,0,0,0,0,0,0,0,0,0],"id":15,"left_children":[1,3,5,7,9,11,13,15,17,19,-1,21,23,25,27,29,31,33,35,37,39,41,43,45,47,49,51,53,55,57,59,61,63,65,67,69,71,73,75,77,-1,-1,79,81,83,85,87,89,91,93,95,97,99,101,103,105,-1,-1,-1,-1,-1,-1,-1,-1,-1,-1,-1,-1,-1,-1,-1,-1,-1,-1,-1,-1,-1,-1,-1,-1,-1,-1,-1,-1,-1,-1,-1,-1,-1,-1,-1,-1,-1,-1,-1,-1,-1,-1,-1,-1,-1,-1,-1,-1,-1,-1,-1],"loss_changes":[9.435792E10,3.2239567E10,1.2795642E10,1.2770642E10,9.02996E8,3.3451745E9,1.5809865E9,5.971809E9,1.913557E9,4.6023475E8,0E0,7.9837594E8,1.7625211E9,7.3238694E8,9.1162797E8,2.3760512E9,3.2296677E10,6.424115E8,3.3682924E9,6.955725E7,1.622016E8,1.7611162E8,2.9587046E8,3.3365606E8,2.9717658E8,1.0528666E8,3.5125286E8,1.6964738E8,1.047177E8,7.150972E8,1.3040032E9,8.497971E8,1.9374739E9,1.6497698E8,3.2519987E8,5.9583693E9,4.4670413E8,4.936704E6,9.552528E6,4.584781E7,0E0,0E0,4.5067264E7,1.6766874E8,1.1831962E8,3.865989E8,6.2455296E7,1.429929E8,1.7107418E8,6.987994E7,1.632081E8,2.003008E7,5.328196E7,7.961989E7,1.268203E8,3.9791904E7,0E0,0E0,0E0,0E0,0E0,0E0,0E0,0E0,0E0,0E0,0E0,0E0,0E0,0E0,0E0,0E0,0E0,0E0,0E0,0E0,0E0,0E0,0E0,0E0,0E0,0E0,0E0,0E0,0E0,0E0,0E0,0E0,0E0,0E0,0E0,0E0,0E0,0E0,0E0,0E0,0E0,0E0,0E0,0E0,0E0,0E0,0E0,0E0,0E0,0E0,0E0],"parents":[2147483647,0,0,1,1,2,2,3,3,4,4,5,5,6,6,7,7,8,8,9,9,11,11,12,12,13,13,14,14,15,15,16,16,17,17,18,18,19,19,20,20,21,21,22,22,23,23,24,24,25,25,26,26,27,27,28,28,29,29,30,30,31,31,32,32,33,33,34,34,35,35,36,36,37,37,38,38,39,39,42,42,43,43,44,44,45,45,46,46,47,47,48,48,49,49,50,50,51,51,52,52,53,53,54,54,55,55],"right_children":[2,4,6,8,10,12,14,16,18,20,-1,22,24,26,28,30,32,34,36,38,40,42,44,46,48,50,52,54,56,58,60,62,64,66,68,70,72,74,76,78,-1,-1,80,82,84,86,88,90,92,94,96,98,100,102,104,106,-1,-1,-1,-1,-1,-1,-1,-1,-1,-1,-1,-1,-1,-1,-1,-1,-1,-1,-1,-1,-1,-1,-1,-1,-1,-1,-1,-1,-1,-1,-1,-1,-1,-1,-1,-1,-1,-1,-1,-1,-1,-1,-1,-1,-1,-1,-1,-1,-1,-1,-1],"split_conditions":[5E0,4E0,1E0,1E0,1E0,2E0,4.9E1,2E0,1E0,3E1,9.417892E2,4E1,4.8E1,2E0,4E0,2E0,3E0,3E0,3E0,2.82E1,1E0,1E0,1E0,4E0,6.1E1,4.3E1,2.9E1,2E0,6.3E1,1E0,5.6E1,5.8E1,3.2E1,2.6E1,3.7E1,2E0,3.4E1,1.73E1,2E1,2.02E1,7.704603E2,-5.7520917E2,3.31E1,2.68E1,3.06E1,3.3E1,2.85E1,2.93E1,4E0,2.73E1,4.6E1,1.72E1,2.93E1,6.6E1,5.6E1,2.59E1,3.9033817E2,-2.44646E2,-7.600927E1,-3.090591E0,2.0173454E2,5.957251E2,8.3774524E2,-2.1521672E2,8.914786E0,-1.0082539E2,1.244244E2,1.3619005E2,4.4292065E2,3.646755E2,9.3837225E2,1.06311E2,3.1427496E2,2.2433763E2,5.519724E2,3.9826077E1,2.6354596E2,2.4014644E2,5.8953326E2,-4.6561435E2,-5.9067776E1,-4.7502505E2,-3.268949E2,-3.4282883E2,-1.3413408E2,-4.3262393E2,-3.173049E2,-2.8976556E2,-1.708092E2,-2.4643082E2,-6.843632E1,-1.7969807E2,-6.306429E1,-2.5013707E2,-1.3375107E2,3.599909E1,-2.1472998E2,-4.5328907E1,-1.5155202E2,2.1877583E1,-1.1249644E2,-5.6696453E1,6.186902E1,-1.3049357E1,1.36731E2,2.4458984E2,8.597261E1],"split_indices":[5,5,4,4,4,3,0,5,5,0,0,0,0,3,3,3,5,3,5,2,3,3,3,3,0,0,0,3,0,5,0,0,0,0,0,5,0,2,0,2,0,0,2,2,2,0,2,2,3,2,0,2,2,0,0,2,0,0,0,0,0,0,0,0,0,0,0,0,0,0,0,0,0,0,0,0,0,0,0,0,0,0,0,0,0,0,0,0,0,0,0,0,0,0,0,0,0,0,0,0,0,0,0,0,0,0,0],"split_type":[0,0,0,0,0,0,0,0,0,0,0,0,0,0,0,0,0,0,0,0,0,0,0,0,0,0,0,0,0,0,0,0,0,0,0,0,0,0,0,0,0,0,0,0,0,0,0,0,0,0,0,0,0,0,0,0,0,0,0,0,0,0,0,0,0,0,0,0,0,0,0,0,0,0,0,0,0,0,0,0,0,0,0,0,0,0,0,0,0,0,0,0,0,0,0,0,0,0,0,0,0,0,0,0,0,0,0],"sum_hessian":[3.845E3,2.069E3,1.776E3,1.818E3,2.51E2,1.309E3,4.67E2,1.398E3,4.2E2,1.9E2,6.1E1,5.07E2,8.02E2,2.86E2,1.81E2,6.63E2,7.35E2,9.8E1,3.22E2,4E1,1.5E2,2.22E2,2.85E2,4.65E2,3.37E2,1.26E2,1.6E2,1.42E2,3.9E1,2.67E2,3.96E2,2.4E2,4.95E2,5.6E1,4.2E1,1.94E2,1.28E2,3.6E1,4E0,2.4E1,1.26E2,1.13E2,1.09E2,1.49E2,1.36E2,3.31E2,1.34E2,1.98E2,1.39E2,1.01E2,2.5E1,5.8E1,1.02E2,8.4E1,5.8E1,2.4E1,1.5E1,1.02E2,1.65E2,2.91E2,1.05E2,1.84E2,5.6E1,1.3E2,3.65E2,9E0,4.7E1,1.4E1,2.8E1,1.2E2,7.4E1,3.8E1,9E1,2E0,3.4E1,1E0,3E0,3E0,2.1E1,1.08E2,1E0,1.13E2,3.6E1,1.27E2,9E0,1.62E2,1.69E2,1.16E2,1.8E1,1.85E2,1.3E1,8.8E1,5.1E1,8.1E1,2E1,1.1E1,1.4E1,6E0,5.2E1,9.5E1,7E0,6.7E1,1.7E1,2.3E1,3.5E1,1.7E1,7E0],"tree_param":{"num_deleted":"0","num_feature":"7","num_nodes":"107","size_leaf_vector":"1"}},{"base_weights":[-3.6716534E1,4.470993E3,-5.2735938E3,3.1243584E3,1.44013545E4,-6.275239E3,-3.1573733E3,1.3514199E3,5.522638E3,1.0897577E4,1.5156511E4,-7.1774795E3,-4.674114E3,-4.0287214E3,-1.1702399E2,-2.51681E3,2.2449521E3,3.20223E3,7.8167163E3,1.7023015E2,1.115494E4,1.1573632E4,8.006497E2,-8.438805E3,-6.415203E3,-6.1073687E3,-3.5165327E3,-5.8874917E3,-3.3357295E3,-1.4731366E3,1.1396328E3,-3.1471787E3,-7.5662335E2,4.72193E3,-1.1027855E3,1.1259797E3,5.3384355E3,1.5643061E4,2.5542166E3,4.5396914E3,5.6785266E2,6.006215E2,2.96202E2,-9.385673E3,-7.5485464E3,-7.4213545E3,-5.932323E3,-7.2853457E3,-4.891112E3,1.8162332E2,-3.610923E3,-2.8308618E3,-6.301132E3,-3.991101E3,-2.2825432E3,-2.2810222E3,2.0831384E3,1.6087053E3,-7.5104913E2,-1.9077863E2,-5.5556637E1,-1.461514E2,2.6999289E1,3.4603573E1,6.0824365E2,-1.6856334E2,2.1782263E1,-2.7911386E1,1.13397545E2,1.8179736E2,3.2132996E2,6.858576E2,8.595153E2,4.193324E1,2.1166373E2,3.016464E2,3.883047E1,-5.5370184E2,-4.2330914E2,-4.2987833E2,-3.5485666E2,-3.9300095E2,-1.6007298E2,-1.7180592E2,-3.0160205E2,-5.51566E2,-3.3855173E2,-8.05268E1,-2.5824118E2,-1.3994414E1,4.4513412E1,-3.2677646E2,-1.6703511E2,1.2451934E2,-2.1252051E2,-4.104969E2,-2.4104959E2,-1.5002425E2,-2.4518706E2,-1.7502005E2,-8.3061714E1,6.76794E1,-1.3527571E2,1.2342031E2,5.226628E0,1.1743102E1,1.237926E2,5.794121E1,-1.4132344E2],"categories":[],"categories_nodes":[],"categories_segments":[],"categories_sizes":[],"default_left":[0,0,0,0,0,0,0,0,0,0,0,0,0,0,0,0,0,0,0,0,0,0,0,0,0,0,0,0,0,0,0,0,0,0,0,0,0,0,0,0,0,0,0,0,0,0,0,0,0,0,0,0,0,0,0,0,0,0,0,0,0,0,0,0,0,0,0,0,0,0,0,0,0,0,0,0,0,0,0,0,0,0,0,0,0,0,0,0,0,0,0,0,0,0,0,0,0,0,0,0,0,0,0,0,0,0,0,0,0],"id":16,"left_children":[1,3,5,7,9,11,13,15,17,19,21,23,25,27,29,31,33,35,37,-1,39,41,-1,43,45,47,49,51,53,55,57,59,61,63,65,67,69,71,73,75,-1,-1,-1,77,79,81,83,85,87,89,91,93,95,97,99,101,103,105,107,-1,-1,-1,-1,-1,-1,-1,-1,-1,-1,-1,-1,-1,-1,-1,-1,-1,-1,-1,-1,-1,-1,-1,-1,-1,-1,-1,-1,-1,-1,-1,-1,-1,-1,-1,-1,-1,-1,-1,-1,-1,-1,-1,-1,-1,-1,-1,-1,-1,-1],"loss_changes":[9.022334E10,2.742227E10,3.7278147E9,7.688663E9,4.8307814E8,1.6985252E9,1.5095741E9,3.6072064E9,4.0685097E9,5.2657664E7,4.2533683E8,6.813942E8,7.0023475E8,5.5099494E8,2.1981235E8,2.1509376E8,7.0287616E9,1.6971428E9,1.5857889E10,0E0,8.608256E6,3.2956928E7,0E0,1.6939622E8,1.8966938E8,2.4088218E8,8.548019E7,1.3261926E8,2.152146E8,1.8288162E8,6.062829E7,1.9172723E8,1.504543E8,1.4598661E10,1.2613229E9,3.7823603E8,3.2677222E8,2.2607872E8,6.647283E8,1.2172284E7,0E0,0E0,0E0,1.1427123E8,1.0959872E7,2.5620582E8,6.1415424E7,1.1025971E8,7.967923E7,2.5385105E6,1.6546534E8,1.314455E8,2.5425126E8,1.6519757E8,9.02816E7,8.234819E7,8.889488E6,6.375E7,5.8768416E7,0E0,0E0,0E0,0E0,0E0,0E0,0E0,0E0,0E0,0E0,0E0,0E0,0E0,0E0,0E0,0E0,0E0,0E0,0E0,0E0,0E0,0E0,0E0,0E0,0E0,0E0,0E0,0E0,0E0,0E0,0E0,0E0,0E0,0E0,0E0,0E0,0E0,0E0,0E0,0E0,0E0,0E0,0E0,0E0,0E0,0E0,0E0,0E0,0E0,0E0],"parents":[2147483647,0,0,1,1,2,2,3,3,4,4,5,5,6,6,7,7,8,8,9,9,10,10,11,11,12,12,13,13,14,14,15,15,16,16,17,17,18,18,20,20,21,21,23,23,24,24,25,25,26,26,27,27,28,28,29,29,30,30,31,31,32,32,33,33,34,34,35,35,36,36,37,37,38,38,39,39,43,43,44,44,45,45,46,46,47,47,48,48,49,49,50,50,51,51,52,52,53,53,54,54,55,55,56,56,57,57,58,58],"right_children":[2,4,6,8,10,12,14,16,18,20,22,24,26,28,30,32,34,36,38,-1,40,42,-1,44,46,48,50,52,54,56,58,60,62,64,66,68,70,72,74,76,-1,-1,-1,78,80,82,84,86,88,90,92,94,96,98,100,102,104,106,108,-1,-1,-1,-1,-1,-1,-1,-1,-1,-1,-1,-1,-1,-1,-1,-1,-1,-1,-1,-1,-1,-1,-1,-1,-1,-1,-1,-1,-1,-1,-1,-1,-1,-1,-1,-1,-1,-1,-1,-1,-1,-1,-1,-1,-1,-1,-1,-1,-1,-1],"split_conditions":[5E0,4E0,5.2E1,3E0,1E0,3E0,4E0,1E0,2E0,1.78E1,3.1E1,3.1E1,3.3E1,1E0,6.1E1,5.7E1,3E0,4.4E1,3E0,1.7023015E2,2E1,2.89E1,8.006497E2,1E0,1E0,4E0,1.52E1,1.92E1,6.3E1,2.81E1,6.7E1,2E0,1E0,2E0,3.9E1,1E0,1E0,4.3E1,4E0,2.42E1,5.6785266E2,6.006215E2,2.96202E2,1E0,2.16E1,2.94E1,1.8E1,1.96E1,1.78E1,4.1E1,1.82E1,5.4E1,2.39E1,1E0,2E0,1.88E1,3E1,6.4E1,1E0,-1.9077863E2,-5.5556637E1,-1.461514E2,2.6999289E1,3.4603573E1,6.0824365E2,-1.6856334E2,2.1782263E1,-2.7911386E1,1.13397545E2,1.8179736E2,3.2132996E2,6.858576E2,8.595153E2,4.193324E1,2.1166373E2,3.016464E2,3.883047E1,-5.5370184E2,-4.2330914E2,-4.2987833E2,-3.5485666E2,-3.9300095E2,-1.6007298E2,-1.7180592E2,-3.0160205E2,-5.51566E2,-3.3855173E2,-8.05268E1,-2.5824118E2,-1.3994414E1,4.4513412E1,-3.2677646E2,-1.6703511E2,1.2451934E2,-2.1252051E2,-4.104969E2,-2.4104959E2,-1.5002425E2,-2.4518706E2,-1.7502005E2,-8.3061714E1,6.76794E1,-1.3527571E2,1.2342031E2,5.226628E0,1.1743102E1,1.237926E2,5.794121E1,-1.4132344E2],"split_indices":[5,5,0,3,3,3,3,5,5,2,0,0,0,3,0,0,5,0,5,0,0,2,0,1,3,3,2,2,0,2,0,3,3,5,0,5,5,0,3,2,0,0,0,3,2,2,2,2,2,0,2,0,2,1,3,2,2,0,1,0,0,0,0,0,0,0,0,0,0,0,0,0,0,0,0,0,0,0,0,0,0,0,0,0,0,0,0,0,0,0,0,0,0,0,0,0,0,0,0,0,0,0,0,0,0,0,0,0,0],"split_type":[0,0,0,0,0,0,0,0,0,0,0,0,0,0,0,0,0,0,0,0,0,0,0,0,0,0,0,0,0,0,0,0,0,0,0,0,0,0,0,0,0,0,0,0,0,0,0,0,0,0,0,0,0,0,0,0,0,0,0,0,0,0,0,0,0,0,0,0,0,0,0,0,0,0,0,0,0,0,0,0,0,0,0,0,0,0,0,0,0,0,0,0,0,0,0,0,0,0,0,0,0,0,0,0,0,0,0,0,0],"sum_hessian":[3.82E3,2.053E3,1.767E3,1.809E3,2.44E2,1.198E3,5.69E2,1.041E3,7.68E2,4.6E1,1.98E2,7.64E2,4.34E2,4.42E2,1.27E2,1.95E2,8.46E2,3.83E2,3.85E2,2E0,4.4E1,4.1E1,1.57E2,2.84E2,4.8E2,1.92E2,2.42E2,1.18E2,3.24E2,6.1E1,6.6E1,1.43E2,5.2E1,4.86E2,3.6E2,1.95E2,1.88E2,1.54E2,2.31E2,2E0,4.2E1,3.7E1,4E0,1.33E2,1.51E2,1.51E2,3.29E2,9.5E1,9.7E1,6E0,2.36E2,1.5E1,1.03E2,1.98E2,1.26E2,5E1,1.1E1,5.3E1,1.3E1,1.07E2,3.6E1,1.9E1,3.3E1,3.16E2,1.7E2,1.45E2,2.15E2,7.9E1,1.16E2,7.5E1,1.13E2,7.3E1,8.1E1,1.15E2,1.16E2,1E0,1E0,4.3E1,9E1,4E1,1.11E2,1.36E2,1.5E1,1.4E1,3.15E2,9E0,8.6E1,8E0,8.9E1,4E0,2E0,1.8E1,2.18E2,3E0,1.2E1,4.3E1,6E1,9.7E1,1.01E2,4.1E1,8.5E1,5E0,4.5E1,9E0,2E0,2.1E1,3.2E1,7E0,6E0],"tree_param":{"num_deleted":"0","num_feature":"7","num_nodes":"109","size_leaf_vector":"1"}},{"base_weights":[9.267166E1,4.2433457E3,-4.8452524E3,2.8977275E3,1.398351E4,-6.0024067E3,1.2357692E3,1.7883604E3,9.547053E3,1.249764E4,8.938789E2,-1.040247E3,-8.839856E3,-1.8300388E2,3.0515195E2,6.1773384E3,-5.5878357E2,8.024105E3,6.9510095E2,7.924163E2,1.0802887E4,-2.7959282E3,3.2987087E3,-5.1355145E2,-4.563536E3,1.8344365E2,-5.756283E2,5.0096606E3,1.0738815E4,-1.9330326E3,4.0030627E3,9.275277E3,5.604931E3,4.51971E2,8.618891E2,-2.9262693E3,-1.9548646E3,3.4077043E3,-6.3090466E2,-2.4358592E2,-3.0313733E3,2.2545012E2,-1.13032036E2,5.66191E2,-6.75636E2,4.314891E1,3.052047E2,4.4808917E2,6.46506E2,-2.0257492E2,2.0680831E-1,-2.218855E1,2.6004172E2,3.035394E2,8.17513E2,2.6185657E2,4.0572125E2,-1.4098434E2,-1.8951894E2,-7.51737E1,-1.3536218E2,1.6532635E2,3.1370212E2,-5.4953613E1,3.1044142E1,-7.94927E1,-1.570637E2,-9.116667E0,2.317494E1,5.563184E0,5.535171E1,-2.4873497E1,-6.1361835E1],"categories":[],"categories_nodes":[],"categories_segments":[],"categories_sizes":[],"default_left":[0,0,0,0,0,0,0,0,0,0,0,0,0,0,0,0,0,0,0,0,0,0,0,0,0,0,0,0,0,0,0,0,0,0,0,0,0,0,0,0,0,0,0,0,0,0,0,0,0,0,0,0,0,0,0,0,0,0,0,0,0,0,0,0,0,0,0,0,0,0,0,0,0],"id":17,"left_children":[1,3,5,7,9,11,13,15,17,19,-1,21,23,25,-1,27,29,31,-1,-1,33,35,37,-1,39,41,43,45,47,49,51,53,55,-1,-1,57,59,61,63,-1,65,67,-1,69,71,-1,-1,-1,-1,-1,-1,-1,-1,-1,-1,-1,-1,-1,-1,-1,-1,-1,-1,-1,-1,-1,-1,-1,-1,-1,-1,-1,-1],"loss_changes":[7.8088724E10,2.7090018E10,1.2251247E10,1.3408234E10,1.2288778E9,2.0575592E10,1.9277658E9,1.6084192E10,1.6128696E9,8.793293E8,0E0,4.069523E9,5.6448614E9,3.1326744E7,0E0,2.84373E9,6.389695E9,5.38239E8,0E0,0E0,1.2739932E9,3.5937536E7,6.810995E7,0E0,9.619558E7,1.2111073E7,1.237256E7,1.9688786E9,3.124644E8,3.2133123E9,1.2593119E9,2.7800484E9,2.1189888E7,0E0,0E0,1.9428608E7,1.4269024E7,2.2755968E7,3.612627E6,0E0,1.659648E6,1.095661E7,0E0,2.091226E6,8.922308E6,0E0,0E0,0E0,0E0,0E0,0E0,0E0,0E0,0E0,0E0,0E0,0E0,0E0,0E0,0E0,0E0,0E0,0E0,0E0,0E0,0E0,0E0,0E0,0E0,0E0,0E0,0E0,0E0],"parents":[2147483647,0,0,1,1,2,2,3,3,4,4,5,5,6,6,7,7,8,8,9,9,11,11,12,12,13,13,15,15,16,16,17,17,20,20,21,21,22,22,24,24,25,25,26,26,27,27,28,28,29,29,30,30,31,31,32,32,35,35,36,36,37,37,38,38,40,40,41,41,43,43,44,44],"right_children":[2,4,6,8,10,12,14,16,18,20,-1,22,24,26,-1,28,30,32,-1,-1,34,36,38,-1,40,42,44,46,48,50,52,54,56,-1,-1,58,60,62,64,-1,66,68,-1,70,72,-1,-1,-1,-1,-1,-1,-1,-1,-1,-1,-1,-1,-1,-1,-1,-1,-1,-1,-1,-1,-1,-1,-1,-1,-1,-1,-1,-1],"split_conditions":[5E0,4E0,2E0,2E0,1E0,1E0,1E0,1E0,1E0,1E0,8.938789E2,1E0,1E0,1E0,3.0515195E2,1E0,1E0,3E0,6.9510095E2,7.924163E2,2E0,2.87E1,3.09E1,-5.1355145E2,2.76E1,3.33E1,1.72E1,1E0,2E0,2E0,1E0,2E0,2.87E1,4.51971E2,8.618891E2,2.71E1,3.08E1,3.01E1,1E0,-2.4358592E2,2.79E1,2.26E1,-1.13032036E2,1.59E1,2.73E1,4.314891E1,3.052047E2,4.4808917E2,6.46506E2,-2.0257492E2,2.0680831E-1,-2.218855E1,2.6004172E2,3.035394E2,8.17513E2,2.6185657E2,4.0572125E2,-1.4098434E2,-1.8951894E2,-7.51737E1,-1.3536218E2,1.6532635E2,3.1370212E2,-5.4953613E1,3.1044142E1,-7.94927E1,-1.570637E2,-9.116667E0,2.317494E1,5.563184E0,5.535171E1,-2.4873497E1,-6.1361835E1],"split_indices":[5,5,6,6,4,6,4,6,4,6,0,4,4,1,0,4,4,5,0,0,6,2,2,0,2,2,2,5,5,5,5,5,2,0,0,2,2,2,1,0,2,2,0,2,2,0,0,0,0,0,0,0,0,0,0,0,0,0,0,0,0,0,0,0,0,0,0,0,0,0,0,0,0],"split_type":[0,0,0,0,0,0,0,0,0,0,0,0,0,0,0,0,0,0,0,0,0,0,0,0,0,0,0,0,0,0,0,0,0,0,0,0,0,0,0,0,0,0,0,0,0,0,0,0,0,0,0,0,0,0,0,0,0,0,0,0,0,0,0,0,0,0,0,0,0,0,0,0,0],"sum_hessian":[3.808E3,2.069E3,1.739E3,1.819E3,2.5E2,1.461E3,2.78E2,1.56E3,2.59E2,1.84E2,6.6E1,5.32E2,9.29E2,2.16E2,6.2E1,5.43E2,1.017E3,1.94E2,6.5E1,5.9E1,1.25E2,3.79E2,1.53E2,6.95E2,2.34E2,1.12E2,1.04E2,4.34E2,1.09E2,7.82E2,2.35E2,1.26E2,6.8E1,1E2,2.5E1,3.26E2,5.3E1,1.49E2,4E0,1.93E2,4.1E1,1.11E2,1E0,8E0,9.6E1,9.1E1,3.43E2,6.3E1,4.6E1,3.73E2,4.09E2,5E1,1.85E2,8.8E1,3.8E1,6.2E1,6E0,2.94E2,3.2E1,3.5E1,1.8E1,1.46E2,3E0,3E0,1E0,4E0,3.7E1,4.1E1,7E1,5E0,3E0,7.4E1,2.2E1],"tree_param":{"num_deleted":"0","num_feature":"7","num_nodes":"73","size_leaf_vector":"1"}},{"base_weights":[7.3600984E0,4.1512876E3,-4.66907E3,2.8808633E3,1.3229439E4,-5.7938193E3,1.0986744E3,1.7683904E3,9.086394E3,1.658476E4,1.1453061E4,-1.1151012E3,-8.345579E3,-2.4094447E2,5.6332817E3,6.0661543E3,-5.729009E2,7.6501665E3,1.3009555E4,7.011955E2,9.048439E2,9.926149E3,8.589471E2,-2.6031145E3,2.8706426E3,-9.727137E3,-4.2393647E3,-1.6132865E3,1.9667618E3,3.8039277E3,7.2494175E3,4.84056E3,1.0759301E4,-1.8711699E3,3.5708303E3,5.9577466E3,9.62735E3,9.960036E3,1.4516673E4,8.700857E3,1.3756134E4,-4.4980986E3,-1.4647915E3,1.1454541E3,4.341115E3,-1.1653289E4,-8.535146E3,-5.4086484E3,-2.62613E3,-2.8080872E3,-1.3632434E2,2.838964E2,3.398295E3,1.3239401E3,2.466223E2,2.4657396E2,4.1974753E2,1.0966073E2,3.2484357E2,4.4511774E2,6.384694E2,-2.5726973E1,-2.3074661E2,-2.57676E1,2.4042485E2,3.596931E2,1.776446E2,2.760419E2,5.146818E2,2.732354E2,5.492096E2,8.0355695E2,5.298802E2,3.5527454E2,4.889479E2,1.9674327E2,6.976174E2,-2.9203857E2,-1.3075789E2,-1.1653915E2,9.176342E0,7.941167E0,1.3855406E2,1.4409209E2,2.8459308E2,-6.5493726E2,-5.231711E2,-4.9884E2,-3.6175928E2,-3.3832864E2,-2.0696E2,-2.1397371E2,-6.2984272E1,-1.8666039E2,-1.01307365E2,-3.936618E1,4.045285E1,3.7025228E0,6.612737E1,8.983352E1,2.109324E2,3.390441E1,9.283887E1],"categories":[],"categories_nodes":[],"categories_segments":[],"categories_sizes":[],"default_left":[0,0,0,0,0,0,0,0,0,0,0,0,0,0,0,0,0,0,0,0,0,0,0,0,0,0,0,0,0,0,0,0,0,0,0,0,0,0,0,0,0,0,0,0,0,0,0,0,0,0,0,0,0,0,0,0,0,0,0,0,0,0,0,0,0,0,0,0,0,0,0,0,0,0,0,0,0,0,0,0,0,0,0,0,0,0,0,0,0,0,0,0,0,0,0,0,0,0,0,0,0,0,0],"id":18,"left_children":[1,3,5,7,9,11,13,15,17,19,21,23,25,27,29,31,33,35,37,-1,-1,39,-1,41,43,45,47,49,51,53,55,57,59,61,63,65,67,69,71,73,75,77,79,81,83,85,87,89,91,93,95,97,99,101,-1,-1,-1,-1,-1,-1,-1,-1,-1,-1,-1,-1,-1,-1,-1,-1,-1,-1,-1,-1,-1,-1,-1,-1,-1,-1,-1,-1,-1,-1,-1,-1,-1,-1,-1,-1,-1,-1,-1,-1,-1,-1,-1,-1,-1,-1,-1,-1,-1],"loss_changes":[7.511217E10,2.366242E10,1.181968E10,1.2437818E10,1.3120512E9,1.8185679E10,1.8116014E9,1.5408883E10,1.4443418E9,7.535821E7,1.2982886E9,3.204195E9,5.5523164E9,7.030401E8,1.7346483E8,3.0539407E9,5.3433226E9,6.219264E8,1.8632397E8,0E0,0E0,5.138432E8,0E0,8.411533E8,3.679433E8,1.5926559E9,4.573783E8,2.5196582E8,2.1344314E8,8.862592E7,